<?xml version="1.0" encoding="UTF-8"?>
<!-- This file was created by ACADEMIC version of SMILE -->
<smile version="1.0" id="barley" numsamples="10000" discsamples="10000">
	<nodes>
		<cpt id="forfrugt">
			<state id="Cereals" />
			<state id="Cer_rotation" />
			<state id="Beets" />
			<state id="Clovergrass" />
			<state id="Other" />
			<state id="State5" />
			<probabilities>6.070815618586039e-21 1.664615416985666e-155 0.6175005818631891 0.382477049483955 6.4652339478986e-09 2.236218762177411e-05</probabilities>
		</cpt>
		<cpt id="jordtype">
			<state id="Jb_1_" />
			<state id="JB_2" />
			<state id="JB_3" />
			<state id="JB_4" />
			<state id="JB_5" />
			<state id="JB_6" />
			<probabilities>2.475576733631232e-09 0.5968347506980624 9.504809146598609e-51 0.01018193257792136 4.704420699985095e-28 0.3929833142484395</probabilities>
		</cpt>
		<cpt id="pesticid">
			<state id="Yes" />
			<state id="No" />
			<state id="State2" />
			<state id="State3" />
			<state id="State4" />
			<state id="State5" />
			<probabilities>0.6847116669711631 0.1123647479865307 5.721117870328398e-14 0.000269070282605255 0.2026545147596437 2.239788450789927e-47</probabilities>
		</cpt>
		<cpt id="exptgens">
			<state id="x_30" />
			<state id="x30_40" />
			<state id="x40_50" />
			<state id="x50_60" />
			<state id="x60_70" />
			<state id="x_70" />
			<parents>jordtype forfrugt pesticid</parents>
			<probabilities>0.0002788743470620245 0.8734422165382336 0.07745164066091362 0.02506787769489646 3.879173938750074e-05 0.02372059901950702 0.002161462257052785 4.33520005647702e-05 0.7357178216175002 0.2609120333893838 2.792423744309902e-11 0.001165330707574229 0.04129928649392763 0.7880568763585949 1.000909881050165e-22 0.1034021976675569 1.726780399662194e-11 0.06724163946265287 0.833592846470679 0.1663652409166741 4.191261147439999e-05 1.85879396955008e-195 8.943235182614251e-19 1.172516010632329e-12 5.888743861401768e-21 1.820911012957096e-18 9.696651300409345e-06 0.006109174740366484 7.575407296775622e-42 0.9938811286083331 0.9890565337011697 7.432131257447803e-12 3.327437021025195e-34 0.003357288562939299 0.00758617772845882 7.901216254510606e-24 6.354787172312784e-14 0.7623166521609397 0.03634298625225951 0.2013403437601025 7.494883530307567e-42 1.782663480845173e-08 2.494013725630311e-05 0.005499013480625131 5.462966895522047e-12 0.9944760432018973 2.7194615706308e-09 4.55296789196807e-10 0.4712174289537679 0.002016383859642811 0.3928909999582966 2.173923947107054e-10 0.1338751870036047 7.295310116866804e-12 5.444386560958692e-06 0.1128142766448671 0.0006571669390979021 0.8708105030141565 0.01449091345445829 0.001221695560859189 9.000570449949815e-37 0.1392473499327695 0.2759019335613712 0.584850693568308 1.188097838881271e-200 2.293755113836305e-08 4.505493262680013e-08 0.818105937404525 7.931433852136038e-05 0.1818147032019802 4.097461321944953e-14 1.879951919365324e-17 1.027057545599936e-11 0.01639108041997968 0.006012138469184304 0.008313423928423205 1.734236481765409e-16 0.9692833571721421 0.7051212031288172 0.1313613148970753 2.562182519828763e-14 0.1635174601060152 1.153346623106227e-23 2.18680669340499e-08 1.424301677108553e-17 2.315370790761941e-196 0.9999997621942611 2.303533265500699e-07 7.452412313166466e-09 1.197397879859053e-143 3.924064588926707e-10 0.9820226213254571 5.025832169449225e-08 1.021860002897705e-05 5.089245802294286e-06 0.01796202017798346 0.0002493127621585973 0.002666368030961088 0.2910933102217985 0.6330014705733539 3.615127015321028e-23 0.07298953841172794 0.1378961931487636 2.06900899574027e-07 2.169542144905392e-35 2.549837388886341e-12 5.436629300973401e-21 0.862103599947787 2.187518897221772e-10 0.8775016033323493 6.984144382839482e-07 9.21356568815575e-49 0.1224849411075388 1.275692692192732e-05 6.518114524093646e-05 1.671504665630066e-07 1.47944555006454e-159 2.036109098675998e-43 0.9999299466205953 4.705083697243251e-06 1.013310046676188e-20 2.537400328774836e-22 0.01132024694365289 0.9220673008389737 0.01479816631560012 0.05181428590177322 0.9813382352442661 7.095666179884456e-11 0.0001460775135028612 0 0.01851568717127437 1.046482372942472e-19 1.05623628070707e-09 6.796964776135882e-07 0.1583265986872968 1.248430960906417e-06 0.6461770168379276 0.1954944552911008 1.728565643671897e-120 2.434754356315879e-17 8.344612572312555e-25 0.9999997598036907 2.401956128294751e-07 6.96519503582965e-13 0.03738086746703157 9.166656759415153e-09 2.660504799985614e-05 0.9625925183183117 3.079075293557041e-44 1.059723099044282e-69 0.05058018071596488 0.9126019374343968 0.01197162199170498 3.412558850472635e-14 6.51501766566921e-163 0.02484625985789911 0.01247732200259119 0.0009376652699759691 0.9849062536465272 0.001678759080680251 2.255304530893859e-13 9.426282191244113e-21 1.021777188564645e-06 7.312469590282422e-22 0.006906217143007037 1.770923074049306e-56 2.163458544856926e-06 0.9930905976212596 3.760148585089295e-30 0.0009151030050238042 0.0003845779592169989 5.596750367698153e-11 0.1544321667245736 0.8442681522552182 0.00239977405016686 6.072092059564389e-15 0.000796238536113749 0.003320119106972753 0.99348385178482 1.652192056863971e-08 0.007885489172355053 0.0002368944774720276 0.5860004817604255 1.138347971555811e-06 0.06387906109695467 0.3419969351448212 0.9999999673214034 9.640212531650462e-37 3.267859662065191e-08 1.489532162213219e-24 8.141657918617264e-34 1.510434998982253e-33 0.9985457481708386 1.025407266698403e-05 0.0008261510866935613 1.275724180702519e-14 0.0006178466697880175 1.641041442127154e-19 0.03286227305633112 2.900959088373522e-32 0.9584214668614719 0.006049197622141876 0.002667062460055348 5.645943466637835e-30 6.5864179235908e-10 1.211293835613666e-68 0.3142117517963007 0.6766971235958066 2.379374941960732e-90 0.009091123949250896 2.620478928528583e-05 5.132492380224726e-11 3.215051037837135e-13 0.04957996120816092 0.08631089633735158 0.8640829376135558 3.328154844146992e-20 1.94352471684649e-12 5.160818776186109e-20 0.9995663603987576 0.0004336395992988476 6.89304761042252e-20 0.02391973331959503 4.200329884903182e-250 0.0004310667429770294 0.9756491930376154 7.527799497913747e-14 6.899737175520645e-09 7.72562215804974e-31 0.8222775980607721 7.155441291857528e-20 2.369379967534206e-12 0.1776244151840138 9.798675284483447e-05 0.0004430062470815979 0.5023615271966807 0.002308426871979238 0.4947943924176985 1.155263463684066e-05 8.109463192302224e-05 0.8909758171296697 0.0004516272253525186 0.04688071530427344 0.06169178610404392 5.423666043318045e-08 5.143156236118091e-38 0.002952262986272832 0.0009265338099515084 0.7646180841016459 1.022702052355774e-12 0.2315031191011072 2.565898780716806e-25 1.623777822936849e-235 6.522889633958101e-51 0.03835518081839612 9.252845048806892e-05 0.9513407113191529 0.01021157941196291 4.172589854525282e-08 0.00152724047636345 0.004392989434835061 9.754381156783264e-19 0.9940796433234215 8.503948163442094e-08 0.424658970209311 3.470303103900434e-11 0.0003795285784501422 0.0001294834172043434 0.0001312973882911633 0.5747007203720401 5.839318840184404e-11 1.545400323877511e-07 0.03364347900591522 0.3379811425690375 0.6283752226969662 1.129655518748333e-09 0.3024587412753122 1.242086502555181e-16 0.6221974006148724 0.0001880560544632436 0.07506921041845672 8.659163689549869e-05 3.66084652634957e-06 0.8862862056103497 0.0003077293823078494 0.0004314147517129525 0.1129709894091031 4.702713001436047e-112 0.01522660655111816 0.00327274325648353 1.189285518135967e-13 0.9814957302465445 4.919945735014575e-06 5.573903484855667e-53 8.477686110498976e-09 8.009519705268354e-06 0.01142135882302149 6.034360934532296e-07 5.513863450418822e-05 0.9885148811089896 0.33875591018068 6.723869242379393e-24 2.8244365187648e-07 0.005563216238481491 0.6556551491858447 2.544195134199856e-05 5.563909065382117e-47 2.607778809073586e-11 1.559368498636316e-21 4.339703468677896e-07 0.03302981931628068 0.9669697466872946 0.0003903857747045743 1.866380758981805e-19 0.03572806010174771 9.193793770391834e-14 0.963808218202059 7.333592139683782e-05 1.798592962609193e-11 0.9936898683351698 3.428871129931646e-08 2.053945896471054e-11 2.761580809287655e-59 0.006310097337593525 3.698815499676417e-35 1.124672623447388e-15 0.7547287695658658 1.6329095592237e-18 6.673845898057247e-19 0.2452712304341332 0 4.325891414602346e-35 0.9999999999992526 7.473053549456089e-13 2.03627557088038e-92 5.075528155898028e-104 0.475930568468492 0.5240019511097891 1.466443294740954e-74 2.08184612740589e-12 3.960146675054817e-76 6.748041963719026e-05 4.415449159059954e-05 6.012786962281244e-09 0.01594151857911062 2.019722923841431e-12 0.984014320914492 0 4.063829232514339e-88 0.8628329358752155 1.756717464082483e-08 4.467553445140696e-06 0.002180144991702705 0.134982434012462 0.01445141671223841 0.5768016281302253 0.4001850450777145 0.006319225155948981 0.002242684923872462 5.521231143346457e-123 0.009392014380586115 0.06579152733648115 1.613943320103862e-185 0.8824150430897015 0.04240141519323105 1.384473144497139e-203 0.950465453982173 0.002922036031257415 0.0454989565706812 5.611607854930043e-07 0.0006546486660796845 0.0004583435890233457 3.867151136964371e-298 3.654505906556373e-21 4.558644727802753e-15 0.9999947779094935 2.630059768059722e-07 4.959084525307032e-06 4.532061519006089e-06 4.591197015031124e-42 0.9252719195045428 0.0353399555498175 0.03938359288405014 7.053334906832061e-14 4.374896079742012e-07 0.003991576686527511 4.363203623295632e-06 8.101962256584319e-09 0.9960023428997574 1.271618521588748e-06 0.9836294111549978 6.25360839731852e-05 1.43654807353158e-16 7.760448522390834e-06 0.01630029231250649 9.560130165783846e-155 0.01017836484535578 7.532956843234355e-24 0.3388635333434525 0.0017362592463679 0.6492218425648237 0 1.770886783196206e-10 8.495648192104221e-76 0.1623776527731174 0.04900641493439632 0.01063955123418664 0.777976380881211 0.0001527125738055078 0.2692444263131656 1.133143563784726e-36 1.991881463055236e-13 0.7306028506447947 1.046803486773953e-08 1.261197254988616e-19 0.4539066660075338 2.491710491523138e-06 1.226068769657658e-10 0.5447940847421076 0.001296757417260439 9.371188549511213e-31 0.1968222622116244 0.8029101235531367 1.117699013224121e-24 0.000244309367496531 2.330486774248815e-05 2.697349334653565e-09 0.01809296477143546 0.9813791287174491 1.649554496429743e-08 0.0005278862956291697 1.022592144173285e-09 0.3800976892282842 0.6197338584789932 0.0001682761951529108 5.909663118819995e-28 1.760975695798847e-07 1.576832779978544e-55 2.441422008986053e-14 1.525748115163493e-181 0.9827173519284288 0.006079080188845214 0.01120356781131071 7.139079959019956e-11 3.248213219945537e-12 0.02523650932754609 9.200296306801501e-07 8.750424655119791e-05 0.974675066392916 1.079481483334237e-13 0.003757527080911642 7.745122237430319e-16 1.67424185433541e-19 0.7223707159887751 0.2738717568261387 1.041737322246879e-10 5.793317247377696e-08 2.838604815396622e-05 3.874729331181045e-08 0.0004941372801463239 2.299790357205378e-29 0.9994773799912339 0.007175514399988855 0.9490140270589443 0.001277587924087113 1.165019030444151e-06 0.04251929336154423 1.241223640508699e-05 0.2003632365931075 0.002803524027817173 1.483134542550606e-18 6.28282207960472e-08 1.975085834449279e-09 0.7968331745757686 4.375504752746648e-22 0.642046598003204 0.3484318313320675 0 0.0004246510985051507 0.009096919566223459 0.03328399918976027 3.292607068601434e-09 6.208787097521495e-13 1.020349413811433e-15 3.032864662453917e-54 0.9667159975170108 0.154139769087149 0.7935908606162708 3.124469127901179e-05 9.279427624495742e-05 1.125522727896166e-06 0.05214420580632829 0.003474822964623604 1.139932523345517e-17 9.370835498391354e-07 0.005835533722378222 0.9775525727291497 0.0131361335002986 6.082407093318133e-19 0.009165253962523571 0.9893294564984476 1.551730530444915e-137 0.001505289539028867 1.655114491181447e-33 0.986387135493804 1.673857217587547e-118 1.353580020367139e-45 0.01361267061034804 6.54597693556846e-15 1.938958413998079e-07 1.3379029234606e-81 8.913292895280614e-06 0.0003376585347795126 4.294410530530493e-07 0.9996443237546756 8.674976596566425e-06 0.08512772635017142 5.89427383232737e-09 0.7154368213364687 0.1994354462732273 8.38359484606312e-15 1.458501354567212e-10 0.9029977171817262 4.716265903389119e-56 7.749096230473529e-08 0.09696609745550706 3.520321867992707e-05 9.046531243489802e-07 0.2467763590859089 0.0004899261053480193 1.730125565205895e-44 1.087315955979488e-08 0.7527337039355834 4.238716633651272e-31 0.008717916924827641 0.5705575016725809 0.4088165750446683 0.01153866788618916 1.12466969930799e-07 0.0003692260047639429 3.599599575279766e-05 6.850143247130687e-17 0.9990793079561465 8.454492148491064e-07 8.121411949415798e-06 0.0008757291869363473 0.4554561555862502 0 0.2430117478370323 0.01492920830373586 0.2463766226577815 0.04022626561519992 0.0157156858302073 3.463217226438616e-08 0.9813768746466287 0 4.114219448528068e-08 0.002907363748797109 3.791186885797011e-13 5.561354303431054e-16 0.2559563034010574 9.226197554920104e-09 0.7440436873573395 1.502591951048427e-11 2.71203391300733e-06 0.6600179803139414 3.433205912007337e-06 0.01365129782692123 0.3263245766193122 2.558017323485916e-22 0.9683857716083807 0.01536425953087366 0.01624325639443983 1.349761702131379e-16 6.692147219680715e-06 2.031908611239709e-08 5.500628103098433e-05 0.9999356644729149 1.124678708372452e-16 8.927374289334185e-06 4.018717646770924e-07 7.916953557499285e-64 2.864997701348802e-14 0.006253176014789108 4.74655488124733e-06 3.419423443665746e-33 0.0001327180593788969 0.9936093593709222 4.138935883604714e-08 4.325988832236367e-08 0.0003237238309730963 0.5957795220521486 0.3462760802924253 0.05762058917520565 0.7263516760882779 0.02716272909023034 0.002127892493923447 0.0001189700331906551 0.2442253339539118 1.339834046585048e-05 8.263401840765515e-14 0.02525324616478765 1.930888934313434e-18 0.002359891677884152 1.672163425424493e-77 0.9723868621572456 0.5120462385629209 0.00207750703903362 0.4846890643972566 0.001187190000788851 9.298780564613786e-27 7.553852878206233e-31 9.761141243804994e-08 0.06623957297811997 0.474506324884085 0.4592324566553997 6.368656546220468e-12 2.154786461407979e-05 0.04737203925951655 1.81623737912078e-17 0.001442223485624516 1.385113767357207e-26 1.564496245363335e-25 0.951185737254859 1.051067275247231e-10 2.002565799511746e-24 0.9877829228071703 0.01221707708772305 1.054553483637519e-45 7.436416577309476e-29 1.09697942454301e-42 0.9986549699782286 0.001344283160594229 4.349676256048351e-15 7.468611729199864e-07 2.013996804893451e-98 0 0.02627420057208771 0.0002085312614625338 4.895725468638013e-05 0.9698059953997522 0.003662315512011311 1.569206814513783e-21 0.03985721872899843 0.08348852141423337 8.35024048783282e-06 0.8766458984205393 1.119574104747593e-08 0.5549892384672741 1.741786084075303e-09 0.0001876438024129331 0.0004599585423138096 0.4441937857887946 0.000169371657418273 0.03104088830163753 0.6685070057933599 0.3004520826452834 7.750753375224207e-36 2.325971908929002e-08 6.389014639892352e-23 2.641554282630508e-19 0.002488253954666493 0.9974509554976997 1.342067259684425e-11 5.87083085503532e-05 2.082225662649214e-06 1.875997776264086e-41 7.495834539686527e-30 0.9939913524177624 0.006008647528040519 5.419720196735634e-11 7.343270815385235e-59 0.016318522987492 0.0341371359975946 0.7118093387966217 0.2365025476879108 0.001015605679173166 0.0002168488512079228 4.696486085893838e-35 0.7912022361298091 0.002600812036657756 0.2000597136243842 0.002569163886963745 0.003568074322185124 0.1307921882925061 3.826308028421163e-17 0.04195572947968755 0.6715589196157701 1.387151458528745e-05 0.1556792910974508 4.420107008168869e-31 3.928491351274415e-09 0.6800352035293142 0.3199647925420872 1.072121572426387e-13 1.119113049364359e-170 6.791831585233507e-36 0.9999998332740918 1.758521856084665e-10 8.620759940931305e-52 1.665397910008774e-07 1.026493302563355e-11 0.9944255299680191 9.963232465023822e-19 0.005574369463623507 6.760495403027371e-08 3.2963403160699e-08 3.725596484447866e-154 2.070095395005528e-19 0.858862557424233 0.06005140291045398 0.08107367852300504 1.236114230519132e-05 2.747280336122382e-15 0.0001943915725026227 0.004244031365866863 0.125430077306716 0.8292927669633422 5.956107594021436e-15 0.04083873279156628 0.0001069955326027906 0.004379862651932093 0.001304694861928392 0.9645470478788227 1.791662128737303e-05 0.02964348245342669 0 0.01709574076096001 2.241859882625657e-06 2.246461391519161e-09 1.413739518932539e-14 0.9829020151326819 6.320967105621318e-13 6.279323565556517e-25 0.01114751041343249 0.1513077849829549 0.3948561263891136 0.4426885782138669 6.688817922782231e-11 1.93311056961277e-33 4.348827228575975e-11 0.04124515810908833 2.493870498294431e-15 0.9587548417805327 0.7407701587258828 2.97109486438116e-06 0.2574549222513322 0.001771947927868597 1.968194740726183e-20 5.19890356816414e-14 9.755747885094766e-07 0.1772468096297317 0.7401498557837493 9.90091162503882e-09 0.08180897126982778 0.0007933778409912358 1.222022745929025e-07 0.9708458816498345 0.004343515854683391 0 0.02481043153068874 4.876251889323457e-08 0.001738182194427683 0.02084378723920619 1.251249520333744e-20 0.5053061716250619 0.05037210967687324 0.4217397492644311 0.1462705134233071 0.04469381063921042 5.840591952702545e-05 9.341420685363091e-08 0.8089771335336016 4.307014700945463e-08 1.816333945047557e-24 0.9708548880486908 0.02837794213361126 1.138432957002307e-07 4.386323254893031e-22 0.0007670559744022824 9.071550213301862e-13 0.0005084520703429193 0.001305717172284449 0.9036380025983061 0.09454782815815942 5.946610732249895e-68 2.546457462170101e-09 0.9838908394539988 1.169565583008941e-16 0.0159042210578457 4.352263499612066e-13 0.0002049369412625629 4.208085219147876e-11 0.9559703253310602 0.030710537452002 3.023287180938858e-09 0.01331911371744637 2.043412331643768e-08 4.900120889818687e-17 1.008973697445804e-36 1.228413118024605e-37 0.9999999998859154 4.971672411707105e-51 1.140845966515716e-10 0.01158397444635902 1.302890148040033e-29 0.9201444442616643 1.055507712115601e-20 1.066162513043607e-16 0.06827158129197644 0.9285766558077997 0.0712375414521645 0.0001856774927803863 1.252472554208817e-07 1.085009880267875e-17 8.485035291352388e-34 7.49223558968601e-09 0.0002346018205230497 3.920219633137448e-66 0 0.9997653906872108 3.052542585475294e-14 0.8119719005138309 0.05119233849880784 0.131755509496049 9.180412202951473e-11 4.180321300757052e-10 0.005080250981476154 0.870170560409725 0.1298127578150259 1.655551849066655e-05 1.254712360001199e-07 7.111113542773508e-10 7.44111404429524e-11 0.0006875688733526185 0.0001799736164619634 0.9985773492333732 5.076686858040888e-14 0.000555007548739203 1.007280224215389e-07 0.001472438174318262 1.780763459025173e-16 0.002765492297503086 0.9658434674851086 0.02975581570346719 0.0001627863396026889 2.378864917829452e-26 2.157354090110713e-72 0.00163492846018436 0.6189798626530969 0.3793852088867189 1.580835754061291e-17 5.038292085540784e-17 0.006156192239752716 1.277512726144745e-22 0 0.9938438076011373 1.591099067140881e-10 1.063867550888516e-06 9.511475755068688e-05 1.821624328198552e-38 0.9999037347671935 8.660770478822177e-08 4.205290988269685e-28 5.599205495939968e-51 1.131210945922278e-101 0.7959366417307501 0.1063205435248281 0.08785359048913802 0.009889224255283505 6.866975042050879e-07 0.9973305392040641 3.358471821920421e-13 5.683661774859761e-09 0.002668768414410219 2.379697980138496e-14 3.138069808175182e-07 0.004280473595730855 1.658634922134836e-27 0.07822497385198297 0.8627270036118492 0.05476723513345633 0.5159171045866224 8.287262192931452e-16 0.008677857383518435 7.17770464686689e-24 0.0008109385180183949 0.47459409951184 3.125908781098724e-12 0.004376237361432206 0.3789307771895666 1.940646533110482e-15 0.1941607124635507 0.4225322729823227 1.019977571215189e-06 1.535012907068165e-06 0.008548360172644572 0.1924637625423346 0.1557981951487784 0.6431871271457642 0.0003070277373491374 0.8009470781205874 3.281274088439709e-34 0.198634387977013 6.429589571770216e-07 0.0001108632060933289 0.1404598626374983 5.490436579461452e-08 3.896875950325667e-14 4.544753076496947e-06 0.859535231696934 3.06008086412102e-07 9.42827347818873e-05 0.9995156306653153 1.4815447768448e-11 0 0.0003900865850872876 1.050282234637011e-25 0.8969006423597458 1.565466539060333e-12 2.266063906926632e-220 8.321263390191572e-05 5.687582341654731e-06 0.1030104574224452 6.355810182920587e-32 9.558130436768109e-32 0.6829751591834852 0.3169595482327679 5.176354319412161e-13 6.529258322927213e-05 0.0003625865046745803 5.531083430801536e-09 0.9989505547910389 0.0006868527804847615 3.927181695627175e-10 1.421405563020688e-248 1.479733784662118e-08 1.229461934589625e-07 0.0007564177723878831 0.06689160215747332 0.9323518423266075 5.200633757908885e-28 0.00476740477749134 0.01811172162110317 3.226000067943874e-23 1.714280418572188e-19 4.899582739653982e-06 0.9771159740186658 0.000902063405252069 2.086423966701389e-07 0.9990973712419112 3.567104399548307e-07 3.040099034166773e-19 4.656692060300713e-100 0.002503359085747073 0.9660932663174505 0.03116901605090797 0.0002334501111295772 5.111463226137589e-09 9.033233016312761e-07 1.34412792512481e-09 0.9781515881746115 2.391717840619121e-11 0.007804777818126841 0.0006405131757700342 0.01340311946344671 0.1817096064020146 0.003971535055053182 1.33372192958968e-10 5.908903297613712e-08 0.7442472146386654 0.07007158468186177 0.009768731840127888 0.6244185965043184 3.112479055947293e-13 0.3658126712789718 2.24729756008839e-10 1.515410035295545e-10 0.9989934015934343 1.368181924641663e-29 3.545172360570691e-10 4.915127103412443e-19 1.008082787525768e-08 0.001006587971220482 1.113987680464969e-33 0.3047190658756131 0.5865336283329059 2.091980004768426e-08 3.037606715783908e-30 0.1087472848716808 2.583521606588824e-24 0.9999542604891898 1.596629277273746e-07 4.557984788249326e-05 2.948353782044915e-92 2.966374576636095e-150 0.0001892448199967291 0.9166122826947984 0.0523699158293416 3.071071423157565e-17 0.03082855665586317 5.154096674661912e-60 0.9085938117590053 1.907478636684901e-43 0.09062847945766025 7.002349389393584e-64 1.339437671087107e-14 0.0007777087833210595 4.892826560564546e-11 0.5785191462897424 0.1313067042292682 3.163284673513467e-15 4.965591480026344e-08 0.2901740997761431 0.5969566608270307 0.3337770540287595 2.941935040087271e-23 0.04392942837271711 0.02533685677149281 6.981268469433651e-17 2.4240024800982e-12 2.490977803866546e-157 0.06752397818651196 0.1871250172594709 0.3157870123160922 0.429563992235501 0.9998003545901519 5.432749030941133e-13 0.0001404443852974579 1.168916412441934e-09 4.316752981627472e-42 5.919985509082851e-05 0.002312891274736642 0.1904401969103085 2.295565652645206e-05 8.645048678583701e-09 4.179393610207219e-06 0.8072197681197696 0.112276254701272 6.96582851120518e-187 5.489228829125241e-09 1.409305887665835e-33 0.8877234045167572 3.35292741961041e-07 0.9999725471091166 2.436554960886952e-69 7.477832288016869e-61 4.947263001534217e-09 5.924122783055023e-07 2.685553134197713e-05 1.049212457468364e-11 0.7164827681448322 0.003979235775593358 5.35556024112066e-10 0.2300581767699515 0.04947981876357486 0.005248900336705589 4.314837043100977e-08 0.1670362144881887 2.490392774895526e-28 0.6639530507042837 0.1637617913224517 0.3011987279058507 5.218846421247901e-66 1.862151554391534e-20 4.748429531041475e-11 3.349549117285797e-16 0.6988012720466646 1.201642278182865e-18 6.708975437405203e-08 0.1978595284457948 0.80015321536127 0.001984596983325664 2.592119855333444e-06 0.07225029410977113 1.639809132234868e-56 0.9206614157902352 0.007088290099633094 3.606063346890132e-13 1.521424261314394e-19 2.085732994281543e-06 9.538636680590213e-53 1.87953284787499e-09 5.069359465954917e-06 0.9983332494599572 0.001659593568049742 3.12954758495993e-11 0.1745891082509742 0.33713486994383 1.26500531416378e-16 0.4882760217739003 0 2.436560774372182e-55 0.9986974702708119 1.520144663678374e-06 0.001301009584524465 1.746156735372261e-37 6.541945782976992e-24 3.433864648453823e-28 0.9274342077342517 0.06844578301002809 2.442951416893447e-20 2.436241113195431e-14 0.004120009255695849 0.002159684457917586 4.47883593112262e-53 0.3795492149777638 0.02479727109519305 0.01395102277883603 0.5795428066902893 0.9498294223435473 8.611436095632134e-09 5.775198552752056e-09 0.0001932096632415841 0.01308428230313405 0.03689307130344245 2.379148535675309e-133 2.627746395343499e-261 5.533842535572739e-33 0.02139565501349775 0.8642145814903492 0.114389763496153 2.251568116882727e-23 9.878193667603774e-33 0.9940907411345331 0.0003812533117155805 0.005527995925383484 9.628367971413313e-09 1.217949307796817e-13 2.003998659623477e-291 4.41202375368744e-06 0.7449819380479277 2.747937612350174e-14 0.2550136499281693 9.464570930861567e-34 4.187705422717077e-37 1.48733335455835e-07 2.869814191572259e-13 0.002803011910971233 0.9971968393554063 0.9999999999999969 2.706731452566281e-19 3.425707688094832e-47 3.106439366621472e-15 0 3.557077653828237e-43 6.21867139000472e-83 0.9538007816509565 1.232076198366243e-06 0.04615545662619803 9.28498965848402e-35 4.252964664713303e-05 2.304810417664873e-22 0.0001633323462964255 2.414445448496108e-40 3.074975137817215e-57 1.770238702959765e-05 0.9998189652666739 0.002325613919088533 0.1330768970306377 0.0004709511671408616 0.85016775574696 0.01387115529353085 8.762684264185453e-05 0 0.9063840986985442 4.818229428808594e-12 0.006405094471557966 1.946606617224575e-10 0.08721080663041891 0.0910349738069987 6.425711370134714e-14 1.685344967641088e-05 0.5986696299705787 9.13048805709702e-08 0.3102784514678012 0.8773274754789344 0.1041531383295662 0.01851938213713587 4.054363664536499e-09 2.044391322700146e-19 5.537057491970535e-33 1.422479614202963e-78 0.004954994038390834 3.825959439286045e-06 9.631001714548079e-21 1.042618120647544e-17 0.9950411800021699 0.04912978283061036 0.0002047467852678387 1.11287332343193e-07 0.1133347335513641 0.8367037605889572 0.0006268649564682796 0.02934493296597165 9.851088425971602e-23 1.195076688519315e-26 0.9702835103473457 2.91232463482533e-10 0.000371556395450142 0.9999999999999938 1.058094282084459e-35 2.537999498485652e-265 2.236950551203651e-43 6.314067159806721e-15 7.082573247558792e-110 0.0003834021373883348 0.0005131390042119838 2.502340848969647e-09 0.9991034563560588 1.725889430075802e-35 2.060986057721445e-106 1.857917068093993e-55 1.972210218210196e-22 0.2095785528375369 0.01040245301464667 5.918285450023268e-09 0.780018988229531 0.007954407405236331 7.853888112414439e-34 0.99195314989204 2.137818123131989e-16 1.949573701377101e-145 9.244270272355015e-05 0.007351474644088979 0.6325723024297888 1.197177568572493e-208 0.326307373550986 1.124068895899305e-05 0.03375760868617743 5.17070503578666e-08 0.03814280211307389 0.003219250879869118 0.9586378952997388 4.116444553343219e-268 2.678470638877195e-13 0.0001410670711928431 0.2184334821548359 2.586000738999663e-06 8.116139254577301e-14 3.303937387056591e-98 0.7814228647731513 4.808663335929212e-16 0.06867267406744626 6.202867763170558e-186 0.9313259998506825 1.32427405559293e-06 1.807815232711208e-09 9.959045934888406e-06 0.2482064493973724 1.634868693547994e-22 0.751783591548477 6.777803971683381e-14 8.147998109763137e-12 0.0007727931171580046 3.39502242631994e-06 0 6.249649984030089e-62 0.006622699964186047 0.9926011118962297 0.8450261282184962 8.535446524599102e-11 0.154491189578554 9.321940734536246e-07 1.010335129486009e-06 0.0004807395883924393 0.0008447357145963018 0.3461850265734714 0.6529677741646727 2.46354323324279e-06 4.026488745851502e-12 6.084812570691179e-27 8.073420014081887e-08 0.9724295978370906 4.187060753004179e-13 0.004803739678187608 0.008500483482817551 0.01426609826728541 3.282790811524292e-20 0.07519916261254551 0.003275958408071719 5.888081480281152e-41 0.9215247832515568 9.572782586001307e-08 0.1922188817435914 5.388425953184287e-07 5.670245990227638e-12 0.3570529287175578 0.443599531727048 0.007128118963537124 2.65436598347165e-48 5.495776800041542e-07 0.0002647078505287017 0.9961169446818987 0.0036177978898924 3.923624004259092e-184</probabilities>
		</cpt>
		<cpt id="komm">
			<state id="state0" />
			<state id="state1" />
			<state id="state2" />
			<state id="state3" />
			<state id="state4" />
			<state id="State5" />
			<probabilities>0.9079946627225209 0.07957450079188522 1.261958237364722e-11 2.754644955874287e-16 1.507282045419584e-06 0.01242932919092861</probabilities>
		</cpt>
		<cpt id="nedbarea">
			<state id="x1___375_" />
			<state id="x2__375_500_" />
			<state id="x3___500_" />
			<parents>komm</parents>
			<probabilities>7.021847257018579e-06 1.827392825712845e-08 0.9999929598788148 0.9999496905383054 5.030946169204033e-05 2.589995001251097e-15 8.885817464880892e-08 1.21216907377283e-09 0.9999999099296561 2.498599529931747e-12 2.902245581755037e-09 0.9999999970952559 8.159905355756625e-05 1.768118264843409e-10 0.9999184007696306 0.9630208578037661 0.03697914219623377 2.670684097344692e-37</probabilities>
		</cpt>
		<cpt id="nmin">
			<state id="x0_15" />
			<state id="x15_30" />
			<state id="x30_45" />
			<state id="x45_60" />
			<state id="x60_75" />
			<state id="x_75" />
			<parents>jordtype nedbarea</parents>
			<probabilities>0.6938580928200768 1.299467287141221e-59 0 4.325932293185623e-09 0.056182656282469 0.249959246571522 0.9999909466997901 1.433321897054993e-11 9.05328261827844e-06 3.258345532260011e-12 2.293070842866714e-20 1.07423680226131e-37 3.405964233257066e-06 1.293414042038793e-05 0.9711496342142233 1.203012157312718e-15 0.004152127160641957 0.02468189852047989 4.443771216179402e-11 9.666098929891057e-05 1.213962527915049e-140 6.985606931917117e-05 0.9894229143389506 0.01041056855799356 0.00950114607722709 0.02075094523630579 0.9697479068058044 1.872750457979576e-09 7.912248570764181e-12 2.174125533630676e-55 0.7073111126465776 0.001517103199650358 8.517290726532833e-28 5.683376576978764e-15 0.00310050782456039 0.2880712763292059 1.394046568424739e-26 0.001915453944437499 8.758524244719186e-14 0.9980845460550994 6.132273022932161e-18 3.754119096673967e-13 1.334765799114574e-13 0.001775863245528754 0.7084113745089896 5.680212728025502e-37 0.2897205863891594 9.217585618876522e-05 0.003271543825083901 8.454030570574879e-128 0.1189381466002723 3.194777540947717e-05 0.004528958285293757 0.8732294035139406 3.183558477860117e-163 3.745246644970451e-11 2.784437700613867e-18 7.899831849502528e-53 0.9999999990803599 8.821876141992988e-10 4.286761704536856e-87 0.999999766106776 8.25158988681216e-33 1.735585387579874e-11 2.338565015860561e-07 1.936666221798054e-11 4.339061080293981e-13 0.7801156540066894 0.0008186553957911555 0.01040105919281759 8.090018830184427e-05 0.2085837312159661 0.0001157957850902715 0.9998836100360212 5.937359597280758e-07 0 1.010122743378091e-17 4.429289851390962e-10 5.281073651846013e-09 1.094272496019161e-08 0.6489617633078075 1.036404740089903e-28 2.478948270319353e-08 0.3510381956789111 4.11996776354303e-17 3.753445592519026e-07 0.9999993726305071 7.337258635848526e-09 7.93247721476246e-24 2.446876751022188e-07 1.275401205999978e-14 0.0001267627566617397 0.9798747265839879 0.01999851065933766 2.619630507305439e-17 2.652852618044338e-22 2.924450344464619e-18 0.01063283211826201 1.359824926471052e-06 0.7199785564818308 0.0148159405389494 0.2545713110360311 0.7119467422046689 0.2813211725978437 0.006188077916319223 0.0005440072811380697 5.373943394907751e-24 3.015225424357806e-14</probabilities>
		</cpt>
		<cpt id="aar_mod">
			<state id="x_25" />
			<state id="x_20" />
			<state id="x_15" />
			<state id="x_10" />
			<state id="x_5" />
			<state id="x0" />
			<state id="x5" />
			<state id="x10" />
			<state id="x15" />
			<state id="x20" />
			<state id="x25" />
			<parents>komm jordtype</parents>
			<probabilities>2.795346653447927e-06 0.6522401121675482 0.0004309115273140353 0.01112279201178684 0.3361210803281037 1.428300091862003e-17 3.112344367423679e-10 1.083775006770788e-05 3.11055053727917e-19 7.147055729168829e-05 1.134493482992922e-17 3.126411328546774e-09 7.416360131556649e-05 2.901923025774349e-09 2.418283792145048e-21 6.235991697492465e-210 0.0001192775595090365 5.456600883013766e-10 1.181401880217072e-42 0.9873765802907107 1.471583877072655e-09 0.01242997050288648 0.006184083082972238 8.983396777577117e-05 7.515455194573757e-07 0.01309619276787817 0.005528213725732286 0.001485599890702149 1.158611286718542e-05 1.164783580892594e-05 0.5817791672035612 0.009451168133592969 0.3823617557335896 1.766869114253428e-24 0.02086645891876672 0.007999818732882542 0.002997937115449502 0.4289893320128544 7.051680705785201e-10 1.925697294986519e-170 3.145948938002186e-19 0.02433959115466259 0.5148068613602163 1.330408161041399e-25 0.187940038708896 8.305675179280521e-55 2.012052805135478e-13 1.91485024419439e-27 9.960057501969006e-17 0.002728686131279572 6.208892251793643e-08 3.363802954215923e-32 0.8032869421141121 0.006044270404912606 5.516759250836787e-10 3.896247422476613e-12 1.265807532649988e-13 4.373161716651661e-42 2.669482267861752e-06 3.697835704030582e-15 4.403002191962127e-05 4.957360144854392e-52 0.10761361112279 0.06928085027850428 0.8230588390904917 6.655303420871653e-17 4.674330166233914e-06 2.680862861881496e-05 1.027678410661725e-12 4.181789698520825e-06 1.36718883439765e-95 7.855874333154765e-11 1.110723020815262e-20 0.999952985060659 2.426474167378868e-06 8.923637076133176e-06 2.742494648540752e-14 1.048898970784985e-05 0.004254389791467069 1.444326660479391e-10 0.9936532965434706 6.695775393984548e-05 1.392230938006892e-06 0.0007224838496269636 0.001290990035506761 4.492118987581256e-10 1.501897043730878e-10 6.150869738824931e-11 0.02502480215193287 0.2717761222512074 0.06211523271238262 5.61344343147375e-146 4.799468606486214e-36 0.0004568349582152916 0.0002021906048391552 9.627349519794957e-05 1.374588244094762e-53 0.6403285438173524 8.872346391919544e-12 3.720615658813355e-10 3.472369865634457e-17 9.609651159451991e-145 4.87169996358252e-11 3.13260424511311e-13 9.99774661626499e-09 4.819939186038317e-90 6.613015635093841e-05 9.112098706691378e-102 0.9999338136631686 4.576164208531728e-08 3.284373541110632e-05 0.006151510179147271 0.6510530439621489 0.000153014677468688 3.441729290376734e-47 5.016364800686205e-23 9.029047981582825e-37 0.06395769649481979 1.141169126350619e-13 0.2786518909507914 9.890765723748424e-14 4.430057661437468e-06 3.587726667786966e-13 0.00167314387711454 0.2636584579270678 0.009689739756889424 0.0001977268906954263 2.075638344409122e-13 0.002094882569769984 0.7204050528057689 0.00227656611446605 4.513371531012478e-180 4.185949897125726e-20 0.2633197916341218 1.037898520754133e-19 0.00275772100572971 0.5848105130293053 2.009500299140169e-11 1.091684905661957e-05 0.131289248525973 0.01781180893571842 2.40865511940576e-33 0 0.000158809298705036 2.081098985792188e-67 4.532104979975264e-12 1.677155023838487e-10 0.9760933556169824 0.001177190141103004 2.097596623015367e-195 0.002944851954236463 0.0009144562151290772 0.0187113366015966 2.698804545993657e-69 0.04810730052909588 0.2481228078330528 0.02971781113408583 8.029946464764922e-15 0.2887438804134112 0.09641620783545878 0.2885685995577357 3.688628189012001e-22 7.624779332347428e-27 0.0003233926971516909 1.182089912271438e-20 6.79332277476208e-09 7.527352227414114e-44 4.165155997106278e-22 0.1058668868259473 1.851567618498007e-07 3.89703072002825e-05 0.140606540481024 0.7534869114039282 4.982937958276659e-07 7.568010424335385e-15 7.38012296429762e-10 0.004466322623015311 0.9659039390813952 1.889322415177494e-151 3.599653200630267e-25 0 0.005654998674705193 0.001997296134639382 9.583148374322416e-11 1.269541440727488e-06 6.833575756305743e-17 0.02197617384897278 8.164112605932696e-18 8.956932823227049e-19 9.598688584376009e-11 3.029394505133379e-12 0.01083605475307988 2.295666968416176e-06 3.18609500499782e-22 4.936054768048681e-10 0.03971621211298716 1.901593416055076e-11 0.9494454368553269 3.493226560103097e-13 2.127561736043349e-08 1.116481895494021e-61 5.258049792379715e-21 0.01617287325816113 2.691971587219942e-06 1.804265738369696e-08 0.9709544099484927 4.747891830866634e-34 6.811996390664817e-13 0.01286998550245375 0.117628321642384 0.05402155292707077 0.001726235756817886 1.965033304912452e-10 1.346158326978865e-06 3.711696808551608e-20 1.333666298326309e-23 0.01535651216689718 0.6305108859427241 0.1806948458662614 6.029934301438206e-05 2.963345042529109e-12 0.1962755102953419 0.7877837692668136 0.0004321204488026416 9.154901373097596e-51 4.816549488648048e-10 3.759764461150333e-12 0.01550789888338042 6.902275612958196e-08 6.315945273479085e-07 2.495556502341405e-49 0.0002439396265536051 1.031081637861441e-197 0.004746585809919291 2.315742303082436e-11 0.9715709686340933 9.444480039246027e-11 2.359463318755327e-24 1.113674724352974e-15 1.398529842594655e-10 0.01220104960181634 0.01123745607016126 0.07333340655240132 0.003632008119450927 0.01184824766960205 7.33398187924222e-26 1.804199643440137e-08 0.002354528872752509 0.06073178423591513 0.8402158717618486 0.007884117296883739 2.870906937321396e-09 1.457824220156595e-08 5.293659994854785e-39 0.97732437448969 3.240189314596244e-18 7.045772799186909e-05 0.02034371320831665 1.017672431868459e-10 6.615210763525774e-07 0.002213384022090334 4.695622031011361e-05 2.207118940333388e-13 4.527085366514839e-07 0.0001968290597456421 0.8129714898348629 0.1865651663442525 1.54464279497934e-119 6.487780649868171e-08 8.475620513288964e-10 1.332814504626292e-20 5.302554559234044e-07 7.807010059417584e-11 7.354185408401944e-09 0.0002659113480591311 3.525279165386434e-09 0.5927031489783002 6.320902893549257e-13 0.01915502442590013 0.2970183179486862 5.616180853374748e-06 3.669644287203127e-06 0.0001679841306228616 9.18896461756238e-10 0.000342917052108717 0.09060331719443357 0.0001156123038195785 0.06550112778699915 0.01338266764726785 1.584849057750235e-05 2.223960961042376e-07 5.081751912779563e-57 1.144971160450893e-27 5.634149993501631e-07 0.009736457593247105 0.9112475003666516 3.418005957613547e-13 1.250916691957766e-17 0.007974127587020737 0.9802196363303066 0.002609428173676233 0.007365705749184712 1.598896000083202e-122 0.0008431275321784409 3.730130474590205e-10 1.572580874953817e-08 0.0009879302457971248 2.828301413484859e-08 1.10174937585314e-20 7.697646181174926e-06 1.403209933326519e-20 1.529596136659143e-05 4.438484286455578e-05 5.489194726160584e-06 0.004452764837066953 0.0001510653081416279 2.309167828735506e-07 0.6258107899187644 0.3695122813741057 8.16722304560626e-05 1.13042670150944e-09 3.300159640245304e-67 0.256046856090045 6.442662629468672e-13 3.354742368753119e-07 1.20935322551019e-12 0.1154762000148553 0.6283601013910309 2.538934552442342e-09 3.483112816081781e-05 8.769313228182553e-06 1.06135676588036e-31 2.683754647642074e-26 1.418818746669016e-14 3.259340957774138e-07 0.8645837948473732 0.1333947053503898 7.075227324338972e-17 0.001588016097054311 4.2383867755579e-08 0.0004243460739768061 3.084297557879103e-219 1.964599890958444e-18 4.284523503060122e-05 2.047184413240133e-05 0.5082190783261304 0.1903706677223909 0.3013433549064896 1.153785266438048e-15 2.566222665380124e-15 3.581965822292856e-06 5.649290468340258e-22 0.3627451356105998 6.923856948600294e-07 1.258530844703286e-12 0.0005783964465774224 4.348080701526677e-89 0.0004962439550105487 0.3676186690346339 3.510696925231782e-05 6.03878015793689e-28 0.2685257555969727 3.887172370208079e-20 0.02494554742993037 0.001450757170631839 0.00878993496349011 1.499425987380369e-16 0.0008096620403238435 4.290441062281727e-12 0.0001148700471090447 0.0001782758178927391 0.9192550768345487 0.04440862001146843 4.725568031422501e-05 0.4066167354331405 0.0001616093691105512 0.1809316916519674 8.314384033015957e-17 0.05434711730286871 0.0001261777695753401 0.3539197197140502 4.946021731606325e-13 1.626523158716086e-14 0.003896948758776508 3.926218655794874e-26 2.163275708960965e-10 0.0336788688725834 9.743254164674567e-09 0.03314061965662136 6.942668390084257e-60 0.0007443706871192844 1.322269396308389e-173 0.001380570818840728 4.224876040623544e-08 0.9309276723677314 0.0001278453887615997</probabilities>
		</cpt>
		<cpt id="mod_nmin">
			<state id="x0_15" />
			<state id="x15_30" />
			<state id="x30_45" />
			<state id="x45_60" />
			<state id="x60_75" />
			<state id="x_75" />
			<parents>nmin aar_mod</parents>
			<probabilities>9.995002498750625e-05 9.995002498750625e-05 0.9995002498750625 9.995002498750625e-05 9.995002498750625e-05 9.995002498750625e-05 9.995002498750625e-05 0.9995002498750625 9.995002498750625e-05 9.995002498750625e-05 9.995002498750625e-05 9.995002498750625e-05 9.995002498750625e-05 0.9995002498750625 9.995002498750625e-05 9.995002498750625e-05 9.995002498750625e-05 9.995002498750625e-05 9.995002498750625e-05 0.9995002498750625 9.995002498750625e-05 9.995002498750625e-05 9.995002498750625e-05 9.995002498750625e-05 0.9995002498750625 9.995002498750625e-05 9.995002498750625e-05 9.995002498750625e-05 9.995002498750625e-05 9.995002498750625e-05 0.9995002498750625 9.995002498750625e-05 9.995002498750625e-05 9.995002498750625e-05 9.995002498750625e-05 9.995002498750625e-05 0.9995002498750625 9.995002498750625e-05 9.995002498750625e-05 9.995002498750625e-05 9.995002498750625e-05 9.995002498750625e-05 0.9995002498750625 9.995002498750625e-05 9.995002498750625e-05 9.995002498750625e-05 9.995002498750625e-05 9.995002498750625e-05 0.9995002498750625 9.995002498750625e-05 9.995002498750625e-05 9.995002498750625e-05 9.995002498750625e-05 9.995002498750625e-05 0.9995002498750625 9.995002498750625e-05 9.995002498750625e-05 9.995002498750625e-05 9.995002498750625e-05 9.995002498750625e-05 0.9995002498750625 9.995002498750625e-05 9.995002498750625e-05 9.995002498750625e-05 9.995002498750625e-05 9.995002498750625e-05 9.995002498750625e-05 9.995002498750625e-05 9.995002498750625e-05 0.9995002498750625 9.995002498750625e-05 9.995002498750625e-05 9.995002498750625e-05 9.995002498750625e-05 0.9995002498750625 9.995002498750625e-05 9.995002498750625e-05 9.995002498750625e-05 9.995002498750625e-05 9.995002498750625e-05 0.9995002498750625 9.995002498750625e-05 9.995002498750625e-05 9.995002498750625e-05 9.995002498750625e-05 9.995002498750625e-05 0.9995002498750625 9.995002498750625e-05 9.995002498750625e-05 9.995002498750625e-05 9.995002498750625e-05 0.9995002498750625 9.995002498750625e-05 9.995002498750625e-05 9.995002498750625e-05 9.995002498750625e-05 9.995002498750625e-05 0.9995002498750625 9.995002498750625e-05 9.995002498750625e-05 9.995002498750625e-05 9.995002498750625e-05 9.995002498750625e-05 0.9995002498750625 9.995002498750625e-05 9.995002498750625e-05 9.995002498750625e-05 9.995002498750625e-05 0.9995002498750625 9.995002498750625e-05 9.995002498750625e-05 9.995002498750625e-05 9.995002498750625e-05 9.995002498750625e-05 0.9995002498750625 9.995002498750625e-05 9.995002498750625e-05 9.995002498750625e-05 9.995002498750625e-05 9.995002498750625e-05 0.9995002498750625 9.995002498750625e-05 9.995002498750625e-05 9.995002498750625e-05 9.995002498750625e-05 9.995002498750625e-05 0.9995002498750625 9.995002498750625e-05 9.995002498750625e-05 9.995002498750625e-05 9.995002498750625e-05 9.995002498750625e-05 9.995002498750625e-05 9.995002498750625e-05 9.995002498750625e-05 9.995002498750625e-05 0.9995002498750625 9.995002498750625e-05 9.995002498750625e-05 9.995002498750625e-05 9.995002498750625e-05 0.9995002498750625 9.995002498750625e-05 9.995002498750625e-05 9.995002498750625e-05 9.995002498750625e-05 9.995002498750625e-05 0.9995002498750625 9.995002498750625e-05 9.995002498750625e-05 9.995002498750625e-05 9.995002498750625e-05 9.995002498750625e-05 0.9995002498750625 9.995002498750625e-05 9.995002498750625e-05 9.995002498750625e-05 9.995002498750625e-05 0.9995002498750625 9.995002498750625e-05 9.995002498750625e-05 9.995002498750625e-05 9.995002498750625e-05 9.995002498750625e-05 0.9995002498750625 9.995002498750625e-05 9.995002498750625e-05 9.995002498750625e-05 9.995002498750625e-05 9.995002498750625e-05 0.9995002498750625 9.995002498750625e-05 9.995002498750625e-05 9.995002498750625e-05 9.995002498750625e-05 0.9995002498750625 9.995002498750625e-05 9.995002498750625e-05 9.995002498750625e-05 9.995002498750625e-05 9.995002498750625e-05 0.9995002498750625 9.995002498750625e-05 9.995002498750625e-05 9.995002498750625e-05 9.995002498750625e-05 9.995002498750625e-05 0.9995002498750625 9.995002498750625e-05 9.995002498750625e-05 9.995002498750625e-05 9.995002498750625e-05 0.9995002498750625 9.995002498750625e-05 9.995002498750625e-05 9.995002498750625e-05 9.995002498750625e-05 9.995002498750625e-05 9.995002498750625e-05 9.995002498750625e-05 9.995002498750625e-05 9.995002498750625e-05 9.995002498750625e-05 0.9995002498750625 9.995002498750625e-05 9.995002498750625e-05 9.995002498750625e-05 9.995002498750625e-05 0.9995002498750625 9.995002498750625e-05 9.995002498750625e-05 9.995002498750625e-05 9.995002498750625e-05 9.995002498750625e-05 0.9995002498750625 9.995002498750625e-05 9.995002498750625e-05 9.995002498750625e-05 9.995002498750625e-05 9.995002498750625e-05 0.9995002498750625 9.995002498750625e-05 9.995002498750625e-05 9.995002498750625e-05 9.995002498750625e-05 0.9995002498750625 9.995002498750625e-05 9.995002498750625e-05 9.995002498750625e-05 9.995002498750625e-05 9.995002498750625e-05 0.9995002498750625 9.995002498750625e-05 9.995002498750625e-05 9.995002498750625e-05 9.995002498750625e-05 9.995002498750625e-05 0.9995002498750625 9.995002498750625e-05 9.995002498750625e-05 9.995002498750625e-05 9.995002498750625e-05 0.9995002498750625 9.995002498750625e-05 9.995002498750625e-05 9.995002498750625e-05 9.995002498750625e-05 9.995002498750625e-05 0.9995002498750625 9.995002498750625e-05 9.995002498750625e-05 9.995002498750625e-05 9.995002498750625e-05 9.995002498750625e-05 0.9995002498750625 9.995002498750625e-05 9.995002498750625e-05 9.995002498750625e-05 9.995002498750625e-05 0.9995002498750625 9.995002498750625e-05 9.995002498750625e-05 9.995002498750625e-05 9.995002498750625e-05 9.995002498750625e-05 9.995002498750625e-05 9.995002498750625e-05 9.995002498750625e-05 9.995002498750625e-05 0.9995002498750625 9.995002498750625e-05 9.995002498750625e-05 9.995002498750625e-05 9.995002498750625e-05 9.995002498750625e-05 0.9995002498750625 9.995002498750625e-05 9.995002498750625e-05 9.995002498750625e-05 9.995002498750625e-05 9.995002498750625e-05 0.9995002498750625 9.995002498750625e-05 9.995002498750625e-05 9.995002498750625e-05 9.995002498750625e-05 9.995002498750625e-05 0.9995002498750625 9.995002498750625e-05 9.995002498750625e-05 9.995002498750625e-05 9.995002498750625e-05 0.9995002498750625 9.995002498750625e-05 9.995002498750625e-05 9.995002498750625e-05 9.995002498750625e-05 9.995002498750625e-05 0.9995002498750625 9.995002498750625e-05 9.995002498750625e-05 9.995002498750625e-05 9.995002498750625e-05 9.995002498750625e-05 0.9995002498750625 9.995002498750625e-05 9.995002498750625e-05 9.995002498750625e-05 9.995002498750625e-05 0.9995002498750625 9.995002498750625e-05 9.995002498750625e-05 9.995002498750625e-05 9.995002498750625e-05 9.995002498750625e-05 0.9995002498750625 9.995002498750625e-05 9.995002498750625e-05 9.995002498750625e-05 9.995002498750625e-05 9.995002498750625e-05 0.9995002498750625 9.995002498750625e-05 9.995002498750625e-05 9.995002498750625e-05 9.995002498750625e-05 0.9995002498750625 9.995002498750625e-05 9.995002498750625e-05 9.995002498750625e-05 9.995002498750625e-05 9.995002498750625e-05 9.995002498750625e-05 9.995002498750625e-05 9.995002498750625e-05 0.9995002498750625 9.995002498750625e-05 9.995002498750625e-05 9.995002498750625e-05 9.995002498750625e-05 9.995002498750625e-05 0.9995002498750625 9.995002498750625e-05 9.995002498750625e-05 9.995002498750625e-05 9.995002498750625e-05 9.995002498750625e-05 0.9995002498750625 9.995002498750625e-05 9.995002498750625e-05 9.995002498750625e-05 9.995002498750625e-05 9.995002498750625e-05 0.9995002498750625 9.995002498750625e-05 9.995002498750625e-05 9.995002498750625e-05 9.995002498750625e-05 9.995002498750625e-05 0.9995002498750625 9.995002498750625e-05 9.995002498750625e-05 9.995002498750625e-05 9.995002498750625e-05 9.995002498750625e-05 0.9995002498750625 9.995002498750625e-05 9.995002498750625e-05 9.995002498750625e-05 9.995002498750625e-05 9.995002498750625e-05 0.9995002498750625 9.996001599360256e-05 9.996001599360256e-05 9.996001599360256e-05 9.996001599360256e-05 0.4998000799680128 0.4998000799680128 9.995002498750625e-05 9.995002498750625e-05 9.995002498750625e-05 9.995002498750625e-05 0.9995002498750625 9.995002498750625e-05 9.995002498750625e-05 9.995002498750625e-05 9.995002498750625e-05 9.995002498750625e-05 0.9995002498750625 9.995002498750625e-05 9.996001599360256e-05 9.996001599360256e-05 9.996001599360256e-05 0.4998000799680128 0.4998000799680128 9.996001599360256e-05</probabilities>
		</cpt>
		<cpt id="ngodnt">
			<state id="x_45" />
			<state id="x45_60" />
			<state id="x60_75" />
			<state id="x75_90" />
			<state id="x90_105" />
			<state id="x105_120" />
			<state id="x120_135" />
			<state id="x135_150" />
			<state id="x150_165" />
			<state id="x_165" />
			<parents>forfrugt exptgens mod_nmin</parents>
			<probabilities>2.449006246632756e-101 0.2236568307583409 0 1.037226293529694e-315 6.54672935244833e-07 1.298042585724864e-17 0.004677198618966866 3.573650655756685e-08 0.7608780716560513 0.01078720855719911 0.003365431152984798 0.03129064129121294 2.373942999088724e-06 0.7013791204131546 0.2522904096792387 3.479787358216472e-09 0.01165885699393587 3.581897641218764e-18 3.946520342954015e-06 9.216526343807034e-06 5.57946925642893e-10 0.8365573819023654 2.988065419890685e-06 0.02134455171693112 4.833428339308338e-06 3.084508524690651e-05 1.281218463215736e-06 2.673827817367626e-14 0.1420581113692961 6.655964542613658e-09 0.01240042387622419 5.421911933804113e-16 4.568132502031321e-16 8.843484939580913e-34 0.7805840918880498 0.2022976856941576 0.001903955067828091 7.645368634382684e-07 1.916596585199935e-10 0.002813078745216199 1.509983432833438e-11 0.008250369099949082 0.9693543173023491 1.50486060883601e-09 1.891492887013648e-16 0.000870126302947874 9.051085136315078e-13 1.316898561333017e-10 0.02152518564219829 1.680653881047503e-31 1.057600620127849e-175 0.8340062957143344 1.30783004290333e-14 7.763241871122852e-10 0.1659896469821847 1.921980862472239e-15 3.892794395180434e-06 5.487412881694925e-13 2.269360912752885e-38 1.637321974829619e-07 6.91557399758398e-264 0.7234701526893996 3.10050451870428e-55 0.1291821614778937 2.9493001114097e-136 8.039620881654081e-25 0.0001789418682469105 0.1457468667897477 7.325935579789601e-74 0.001421877174712162 0.002626208720149858 8.919349430006861e-16 1.791510009512819e-05 0.00141660031322182 0.6307291569113939 0.02743997623074286 3.902970998901291e-16 0.241664401515947 4.980780901216278e-07 0.09610524313035811 1.572883798093448e-07 1.56072218338194e-17 4.603372634660989e-09 1.06150576817401e-21 4.550591955339463e-08 0.05516267412707632 4.089900156215381e-17 4.582250065927482e-09 0.1987368951018298 0.7461002187911717 0.4404069352121351 2.678205154052741e-19 0.5592385129129368 6.201911459551621e-59 0.0003519867001910713 6.257732317517293e-78 1.608780886575772e-66 3.382977122463235e-08 1.81213986896854e-28 2.53134496586849e-06 0.001089739916665534 2.731896463068752e-21 4.575257682599543e-30 0.01645914184286335 1.320025197937933e-35 0.05962213989773278 1.491101739654273e-06 4.903979793442566e-05 0.9227784474408735 2.190700812955975e-12 2.181480632765871e-310 0.4301334999768803 2.537236369484017e-164 1.630223319460715e-36 0.5412644268319261 0.02860148589616974 8.458950585616906e-31 1.971341708509953e-88 5.872339077613221e-07 6.111606785587989e-11 1.479157138068241e-07 0.005282381173794601 7.241090246373155e-05 0.0354143033828181 1.454134435461718e-06 0.576885629632263 0.01422427355979852 1.653626157807256e-98 0.3680973737791201 2.202551959266412e-05 0.0004081585576839136 4.138601580461555e-05 4.875070259382065e-30 0.0005965972557310912 5.592420408218186e-110 5.03484348282269e-19 1.246842482344098e-15 1.256853949411029e-19 0.9983471656655447 0.000606692505234371 1.167392840298024e-07 0.1927868320105098 0.8071103600835077 3.333456528105892e-06 6.603959253283747e-70 9.935768354950594e-05 3.355827449649861e-17 9.254225099453093e-20 1.270176654448815e-72 2.662090333022411e-11 0.9211481342108038 7.710809910017545e-09 6.293133259782763e-185 0.06724263472522482 2.064590872734835e-159 0.004328753379126875 4.627249509558535e-09 6.33032710070677e-10 0.007255758739827417 2.470597392509838e-05 0.8696027359968691 3.850379608097604e-07 0.03031462219506812 5.165875392329939e-17 2.810045325415828e-33 1.276583937266753e-17 2.153792371055969e-06 0.100080102977731 2.972541922824244e-43 1.306121603735692e-195 1.919172795196649e-07 5.558795561653986e-05 0.3990105742302359 4.063054793601578e-11 0.5527897548264367 0.0001734744494898324 0.0002690569099936046 1.050181770749306e-12 0.04770135952820413 1.410629022402798e-10 2.945473580708723e-07 0.5657308382377867 0.001160069390206495 1.083421350240542e-16 2.830052207477496e-42 6.413220806072361e-05 1.181192435056287e-05 0.4330328536872541 3.820532530305184e-55 4.983200362162826e-12 0 6.843527577349245e-06 9.848414269928726e-05 1.966930096177082e-83 3.929917642259772e-06 5.47532196525105e-19 0.0001415744231909267 0.0120519838782358 0.08223498939095771 0.9054621947196966 6.53718770706506e-09 1.049607355948777e-09 0.003027628579353673 0.007059964852577412 9.989376842341669e-23 1.908358543982611e-09 0.9132190719181562 0.00531117548797768 0.07138214923208215 4.346992541429619e-10 0.7709943188496211 0.001412435772985106 0.0004752800644539236 1.02829684308019e-11 0.1493234759869755 0.07734141214245702 4.609566744516214e-71 0.0004495183494447243 3.558823779480007e-06 1.097506946922752e-23 1.570765851822476e-06 3.021210070773653e-05 0.001607217634485872 3.531478002213214e-14 2.307271644680088e-06 0.2151413520187725 0.003095711637953347 0.09174337769103461 0.6883269958799433 5.125499957080386e-05 9.544435883459692e-08 0.04970833190785874 0.01535338124110284 3.601930676618836e-07 0.6332502842865616 5.605205172889141e-126 5.096637041991088e-11 0.3016875468745305 1.5917989013242e-140 1.553523223563309e-12 4.363093913667031e-08 0.439990050108515 9.697012392425364e-14 2.730137011721094e-05 0.5587673792359689 6.109822282530628e-09 0.001017257377298595 3.882705339838585e-34 0.0001952118797418304 2.750287500145046e-06 0.4276351792482319 0.0319555165709263 2.304508327622268e-07 0.03953860847699612 0.5008673483755297 2.053161194751353e-10 3.828721481556375e-08 7.059723789957125e-22 3.078384912200511e-06 4.017065708585115e-14 0.06047888689225431 1.377375433102126e-07 1.277026179595064e-11 0.0001692980222857216 0.1817048161912309 4.622284467789053e-09 4.44538117483473e-26 0.0009743533241199245 0.7566724145507536 8.864675755478157e-08 5.439799375381342e-07 5.804980373588103e-12 1.584477535861477e-16 0.4952299968100173 0.0221262894302736 0.3539300375537869 1.222190041540483e-25 9.499087425390676e-05 0.1285845243690625 3.361697686292034e-05 0.116433186314906 2.300642495982269e-10 0.003386607473489253 0.4406087857812322 5.085501318840272e-29 2.418170957004681e-16 8.613618819264306e-12 0.001494939513455776 0.005805464449910452 0.4322710162283281 0.01156193202676543 1.345771370975069e-21 5.431594597617129e-40 0.225262577724003 0.7299249969903746 4.102514425018364e-05 0.03320935198573841 8.388239933587746e-08 3.224646904171429e-08 2.637108093531562e-17 8.330064873646967e-05 0.6327293688735013 9.24962022350024e-18 1.098455857216036e-14 4.206478260009226e-10 0.006060249318146302 0.1355423553385788 4.111312268611681e-28 0.2255158446032957 6.888079708265683e-05 0.01266520013398783 0.2618202606111357 6.190592650278474e-07 2.804139338538136e-05 0.7160281319657937 1.039625710244395e-06 0.007296426366668634 1.933276993687716e-05 5.062991067625725e-16 0.002140948074115976 0.2102219641267024 3.3472172164314e-37 0.1959115546299327 6.471655057053877e-20 2.515027299036741e-06 5.499369735638275e-23 1.234957737177187e-17 1.202962253784489e-16 5.225699574360121e-09 0.5938639609903661 0.0002375142926729245 3.562763289529819e-06 6.762873306026586e-11 1.600983968380284e-06 0.341943118366681 0.1408199919907869 0.5169942009794936 1.841955223486676e-21 1.055547900057242e-08 1.145873909660844e-59 8.761989168576404e-31 6.570346654971286e-06 6.031612720053098e-38 3.024587685746722e-65 7.735231283071518e-09 2.610316310266002e-50 0.9996402999894884 0.000101037475678942 0.0002520844529463911 3.384579417058558e-33 1.482053908476701e-06 4.334138756557325e-10 0.006629685690948277 6.414466113724609e-15 0.9923452959557869 0.001023535139616878 1.180968089042614e-13 1.690413116633992e-140 2.440943401094751e-22 7.262011326133869e-10 2.4632464234934e-12 1.012817106896287e-07 6.036733623806018e-15 0.002815275794692497 0.07854569769798786 2.777871801396379e-29 1.748406710991072e-05 0.6486925920942367 0.269928848336646 7.251469935349576e-10 0.3958827177498768 5.754404174495088e-39 0.3807203539762531 0.0001810864407534712 1.226033902499502e-113 4.427834769115002e-25 0.00064228597577296 0 0.06121483773866977 0.1613587181186738 2.379400634257681e-34 8.249216472916117e-13 9.387452474282983e-06 0.1589323445800742 3.477787119097913e-10 4.949499027693343e-08 8.044962813425309e-11 0.04382123544266872 9.722011922985115e-93 0.7972369826007392 1.215699951771374e-12 2.103654392829564e-08 4.530301857178311e-11 0.3142675851360845 5.05603932734418e-23 3.362215261247048e-06 0.2517368963975437 0.4339921351680477 2.36706313128484e-16 2.506174297386096e-27 0.02650807858116689 1.203892745662346e-15 0.7108840524052094 0.003473716535365336 2.595471627858259e-18 0.02678937830219228 0.001550508372919746 4.853621092807101e-05 4.279100767919433e-15 0.2307457295922129 5.093835785367024e-07 3.108901471019297e-12 1.239991151523399e-112 0.9218598374681287 1.868768500234063e-11 6.839670321450846e-05 0.001935775304678866 0.03686629351142615 0.004731103406627803 0.03453808420054858 0.01113996688598571 0.6963998580933124 0.2917277343991647 3.784162213973613e-16 0.0006937170225470273 3.405908070718028e-06 3.531760874421405e-05 7.700575756005361e-172 8.217462222847137e-11 9.778867884059083e-34 0.000349458183583641 4.581482362318682e-11 0.0108877797424798 0.8184337115791069 0.02483152014327482 2.803278642301203e-08 0.003085258404511267 8.633525006499748e-08 0.1424121572755561 2.576361036918876e-10 0.006040231090382329 0.01155962310344708 1.957842920451987e-15 0.02298962560227289 3.122303329284076e-11 8.034487797442087e-15 0.9541754489827479 0.005231465962082942 3.605227833795218e-06 1.080114191460876e-51 5.277243168048085e-05 1.731386210711679e-07 3.278037614626193e-31 1.452692207136767e-05 0 1.650689883929629e-74 2.875018926599791e-07 0.0007944481605907832 1.641009779115564e-06 0.9991361508353646 0.001751207215051897 0.04055073252122747 7.446420976344126e-94 1.900922063356363e-25 2.436919108079492e-09 5.9776919923864e-47 0.9490441357061775 3.47940409904767e-47 0.008653922119848912 7.749169268644525e-13 0.8828081500175199 1.078793766197124e-11 2.126818775038337e-49 3.121546307447611e-14 5.201395816483312e-42 0.0003614535616590046 0.1132909432927898 0.003539453117137733 1.163407967030856e-38 7.430971992507188e-14 4.959457880616883e-05 0.001526257349771082 1.332797072688011e-12 1.605243383901576e-57 9.697285752274837e-32 8.075096509842367e-07 0.02272361091596823 0.9756834380830955 5.04863835098976e-15 1.629156137023201e-05 1.280063973919039e-05 3.446666214616897e-26 1.641874149455597e-08 0.7448767889889877 2.588613312430797e-19 0.003126194699791908 0.1087490630225033 0 7.865239082956321e-82 0.1432351362302363 4.319770930836635e-12 0.3909757368980941 1.007366240014762e-07 2.135912098639879e-09 3.015882387907525e-09 7.446891901753522e-06 0.4349613472547803 0.1109563368471109 0.06309902402432785 2.191046919648419e-09 4.100456037573035e-05 8.517384281391645e-21 2.855684616847931e-07 0.0003703635429036992 0.01042369719876612 0.0001033327159005048 3.083655964573506e-05 0.9890304106313306 6.922261587848856e-08 3.841400668702995e-70 3.679842091814436e-06 1.932112422710744e-10 0.0009363281361224884 0.01637640671064692 3.860539950687367e-08 0.1759708934525318 1.817299399977829e-15 7.49872823299381e-11 0.8066850926887189 2.75602962881885e-05 0.7138280953875543 2.015502936356124e-08 3.013503759496059e-07 0.05697802960602249 0.2288164427438684 0.0003708428756551169 0 2.514818543346239e-08 1.820107585384593e-06 4.422625723348956e-06 4.067466980738743e-08 0.7886323568319619 0.02090420797850185 0.1413064475141328 0.0002705659695412184 1.373243586328998e-26 0.002656884831991865 7.894417070163366e-05 0.04586231313784358 0.0002882388906552448 0.01287300950478173 2.946624124943721e-32 0.002644389638604962 2.358779101253561e-15 0.7250010009003869 0.04653444188454327 2.547931889130712e-15 0.2129419931439475 5.164927730673841e-06 1.392754387861264e-44 1.402688417643303e-14 4.930592861153118e-138 2.586994257103522e-06 0.0004037202309091337 2.400586230474883e-10 0.04860052285933094 4.160645422382976e-90 1.359281626740962e-11 0.01471745893825436 0.9362757107235831 0.8959508129108881 6.880230586846689e-11 0.002444338112510254 1.880065824226767e-185 3.995534582364943e-46 0.0007011567170885812 8.075197582859351e-10 0.009484288475549565 1.559334020946782e-19 0.09141940290764164 0.0002554480182762213 0 0.6604331979166134 2.087036446854322e-06 7.818860702807174e-07 0.3202849797197481 0.01813218194215962 0.000889314722683772 1.999682547368517e-06 9.075454444844825e-09 2.274932584961389e-23 0.2851086717427198 1.113338542905902e-13 2.372101451420548e-09 4.687105284416856e-24 0.6123735506198691 2.190745439332529e-08 3.737548948860002e-07 0.1025125302434216 4.849359427662222e-06 7.718695036718275e-15 3.735548878968524e-23 3.055974045572455e-20 6.251795645581221e-05 7.901778047826669e-13 2.590174256311116e-12 0.01698076207869237 0.0003140916303784374 4.389769518104043e-06 0.9826382385615671 0.09487721079673601 4.342114690836862e-12 3.328464620326459e-60 1.15554024139242e-49 2.95969997998365e-05 0.8712136666782541 1.444624014441685e-06 0.01888443552918197 0.01499313814750715 5.072201644229094e-07 1.438683134642719e-06 0.1648723641407362 0.002420209618903582 2.54635445766007e-67 1.954584205807031e-07 0.1858974707398754 1.612538992809629e-11 1.195085184436211e-254 0.6462102684008776 0.0005980529419264442 3.054732453337494e-22 1.085247007385766e-20 0.02420757035716679 0.4287265649787175 3.28612447481226e-08 7.098753015299764e-06 0.4082816124400333 0.1387513753861277 1.403162638776851e-05 1.171359730685138e-05 0.0004474239966515115 4.934249792533325e-37 6.105059850040477e-07 6.183993900435204e-10 4.315935063816673e-35 1.381675983377193e-15 6.403635429210417e-08 0.9994631955956602 8.870524694823298e-05 3.847379728006047e-34 0.638748421639197 3.50557565554569e-05 6.53570725696439e-49 0.3503798880537696 0.0002436353694223863 4.367360161218787e-07 2.442895665829637e-11 0.01059256242061042 4.962152183677836e-39 2.781406456058285e-16 0.00335505051125464 0.3032271343034202 0.06057331505486671 0.6326632275001326 1.990350874235134e-16 9.619201415883715e-36 2.426411399185199e-05 1.718966155168856e-39 3.461626691266415e-08 0.000156973900066914 0.05260701138937133 2.746874059139716e-08 7.786726820943172e-05 1.464370033210677e-09 0.1489235559870369 0.009533729035491439 1.898136418550445e-05 0.7888388260225773 1.757032271650271e-14 8.47524306239372e-28 2.163531561930788e-08 7.666596804177231e-05 7.992186956634896e-10 0.05812770539141117 1.45334398938107e-06 0.03172421297608077 0.9100646815416089 9.162984384087962e-13 5.25834340999764e-06 7.468519301150352e-15 0.1904540972994348 0.001679514816570064 4.577463103743073e-10 0.101589811866561 0.4162269030034584 0.289643100986692 2.194531051964558e-43 1.170538079190827e-13 0.0004038361614069646 2.735408013368058e-06 0.5814720048749094 1.091793459100607e-05 0.01779538884275996 0.09267515095002736 1.411804665866666e-05 0.0001828043657492965 0.303880756438139 5.003107053886048e-21 0.0003958316704303988 0.003573026876734686 0.0001821421050645271 0.03700901346384419 0.0001946377431417808 0.0002592741975589986 0.5274727880654559 0.4348821444249336 1.893023866501058e-50 1.237215730304933e-133 4.631852277161091e-26 1.155810930995356e-15 0.4100852292200107 7.3037697592296e-09 5.301458467202312e-06 3.819264996513268e-07 2.305506353926788e-18 0.04031360991182786 0.5265856900507465 0.02300960389702506 3.74282680618164e-26 1.762316532344939e-07 1.887724864573572e-05 2.219526161311444e-07 4.192465426765271e-11 5.664524835547678e-13 0.1665390196500034 5.647706853972493e-16 7.358241664149518e-05 5.231880396573155e-07 3.365312227416463e-14 0.8333677755015283 0.001646036497308437 1.687964474462958e-44 3.737841131766589e-12 0.2360439308850699 5.17594462128529e-05 1.203994297881315e-05 0.004058744340076004 0.7575782728986757 0.0006091062378804106 1.097480601569063e-07 0.9882135876496312 1.879406704645095e-10 0.0105047544988063 2.441026855384063e-06 2.10634678265321e-05 0.001236835801768172 1.703705264032594e-06 2.256489139519092e-34 1.961270993609888e-05 9.519716773687199e-10 0.4541561875040844 5.543708896960269e-07 2.260280673880967e-27 0.02874856627280459 2.510064603357802e-25 2.588157729285566e-21 0.0003284296200557234 0.5167641579662889 2.104265876516136e-06 2.732057661276591e-17 1.90710896225339e-12 1.376989187529464e-07 6.947841677460582e-13 2.427953451348675e-17 8.639738872989892e-96 0.0002217926079191881 0.001808248794003254 0.0566931453062882 0.9146794113864393 0.02659726420382937 5.862624063788692e-10 2.730252743140233e-06 6.455710713154345e-05 0.0001243148109260315 0.9543315745929036 0.01582142788179276 9.047714001790328e-31 0.02951072823484968 0.0001446665333908701 6.99405066645759e-26 0.01089027051376348 2.680766195977417e-35 4.575606258184555e-21 5.7096046771483e-05 1.302821175367941e-18 0.09460960137646235 9.2912615853326e-11 0.5125095301072239 0.2553056476283367 0.1266278542345295 2.020399398242535e-08 5.492084893613674e-18 0.2429158495999384 1.382124704621459e-05 0.622393508756526 4.674463649623949e-08 4.284733377977459e-29 2.066096892899213e-06 0.01021638906547122 0.1244582982854947 0.0001897760174902455 0.1076988988172334 5.67637282953688e-39 4.737805941289936e-10 0.2770589054484558 2.420238566300024e-05 0.06623626158557207 1.180479482838234e-19 0.5487919552714248 3.798560432600052e-13 0.3616108286272743 0.5679586581917353 0.0658789657069699 6.264640455804481e-14 2.103747157470975e-23 5.233874376207693e-35 1.854657924950681e-35 3.925484190973825e-56 0.004551547473957769 1.430411068724303e-49 0.2656447280117355 7.412763569267743e-05 0.0001265847587076192 0.001231063028763606 0.002495731444896376 2.248505989247256e-16 0.06056896364730204 0.04586632750564587 0.6239924739672515 4.563187131393081e-15 6.467785170641767e-17 1.081677091025002e-05 3.006524164971053e-06 1.309266266561881e-09 0.5320655503369878 0.002683057680911221 1.312248341833111e-17 1.509619576477108e-09 0.2483943829181071 0.2168431829500327 0.0008023005776784114 2.743763145342628e-271 0.0003986264131292123 0.001867670173690165 6.721220685235423e-08 9.995169915326235e-09 0.01398211632766056 5.115991367652678e-11 0.9829492092491695 1.35481660625675e-13 2.844680458903916e-69 0.01984911452486447 0.03226267952149999 1.190432452607757e-05 0.05117890795757474 0.8956272993404475 0.0005997041727378226 4.374767623046413e-42 2.26702034781929e-12 0.0004703901560823785 1.204825147336985e-08 4.926134731555643e-16 1.6324351206117e-09 0.007537150215757913 0.1324429496219171 6.337297313902886e-37 0.005547536733761355 7.181863332188779e-73 0.8535733167225263 0.0008990330253500293 0.02490200386511703 2.592574977173006e-08 3.772910529485861e-22 0.02135351741830021 0.00182757335961785 1.870332560038889e-09 5.388252700171061e-18 0.5767204754736334 0.001009071442639537 0.3741873306446095 1.944401609470803e-12 0.03019542317336908 0.002603316653341916 0.4925297458474396 3.094404075738188e-73 0.4642785906703817 6.821646806647715e-11 3.296333728584604e-10 0.0001164293613148795 0.01027649389435871 3.518822622622105e-19 0.04939297956475196 1.16551238778366e-07 0.5842300513807021 1.112645629678595e-09 0.3663607218348469 4.212123256484917e-51 1.304312808093556e-20 4.920212111365598e-285 1.612955581473079e-05 0.07789319466920361 6.336155357587371e-16 0.5989796041601188 2.092494650030522e-21 1.772003279689013e-35 6.473903242042069e-14 1.775495343474151e-22 0.2498307987444723 2.138429582952919e-117 0.07329640242613986 1.5700675106628e-10 0.7796864000079845 6.287027148101137e-18 8.309536009695652e-76 0.2068553522598219 5.036600873721127e-40 8.227148700622339e-15 1.851154055505467e-07 0.01345804606208087 1.63976920787527e-08 1.326996123996367e-08 0.1477621705687619 0.08258632564583955 0.01287509941230465 1.274312326467053e-06 7.386121788080128e-55 0.7506152593188278 0.0002859784921697868 0.005873470600353927 4.083794548027576e-07 0.08292132665647942 1.651204717913234e-08 1.845792415960082e-08 1.829922092926218e-20 3.667743115195753e-10 0.1719255573267975 3.487760119059263e-16 0.1222069611539435 2.194306654793525e-07 0.622945900095368 1.681804744582177e-06 8.057109862680624e-15 0.9963120045316685 1.618417881859254e-70 8.093424461089986e-14 1.498333393439649e-09 0.003686312164642476 5.222865145257904e-13 8.673687969411178e-94 2.072519764082108e-22 0.4193627414165909 0.04685000280275901 3.204703850554935e-14 0.02721404474225009 1.707977027255354e-13 0.3944973962169155 0.02577408024647405 0.01938537936970326 0.06691635520510422 3.696982928591716e-67 5.545609780148699e-15 3.183663762601079e-12 0.9560816628861539 0.004168781946569932 4.857624432163921e-21 0.03974927263455392 2.825295329002372e-07 3.3847548580322e-25 1.656892677505351e-175 2.729795923021908e-39 0.4268240565521295 0.007107582394698816 0.009521214429420175 0.4334676743636822 5.312586557511324e-21 0.1228022745553097 0.0001625380781554333 3.399830148797147e-22 0.0001146596266041327 1.542091312348029e-32 2.037862324681807e-17 0.7387868381232797 5.167657905165631e-06 2.896770399527109e-12 8.990828195089953e-07 4.759762407789202e-05 1.217944588115925e-05 0.257679971355223 5.11903299717242e-69 0.003467346707916883 0.003190187780305703 8.832551695895625e-08 3.709988203870653e-16 2.693589893551695e-08 0.9879199791717852 1.901481074167493e-07 5.568797973207742e-07 0.0008460577163866153 2.084739025303498e-11 0.008042913021354252 2.65555209838304e-06 0.003427058007582061 2.175171343063817e-06 0.4906028470483779 6.777936334183791e-11 4.70087623021229e-06 0.414248711894008 2.030200064690537e-09 1.631190160240688e-28 0.09171184935238087 0.1513998656007808 0.001224767586358969 4.765200166044629e-26 0.04248041707282035 1.819402457709285e-06 1.098470441538189e-10 2.379296223023103e-17 0.8048931302277352 1.152274953329347e-18 2.363700800738224e-27 1.239546186436783e-07 0.9841938284846331 3.719968458060324e-23 4.35319004532448e-06 0.008460832163310861 3.182028806123379e-06 1.543475846105538e-87 4.02906286490793e-55 8.720315340099556e-27 0.007337680178585885 1.321384391512626e-05 3.006405758961154e-140 9.115044968069073e-78 2.669508288375194e-23 0.0008222919914805141 0.5736379305233321 0.4254136499502592 5.332243326376575e-05 1.55963655858415e-07 5.943529409330819e-05 0.05093610424599757 0.1499557023494653 0.001804490292195419 8.654216304099207e-06 1.466691534452626e-11 1.145833917009525e-06 1.812782325703544e-05 0.7972635172738849 4.803147276321207e-06 7.45480303539374e-06 2.409770083788496e-73 4.38056902587519e-05 2.344274722630393e-23 8.384361394321686e-06 0.1245354724859425 0.00102567308644405 8.870437669969175e-05 0.008421566581470148 0.001583960433770173 0.8642924329840203 4.267545491167453e-06 0.2589033471284534 0.03351089197054487 4.924036173235756e-07 3.821545755208619e-14 2.278718333269749e-65 1.740246908572227e-05 0.5378687679026336 5.776636319741327e-06 0.1696890539438159 0.3464282862338388 0.4165740240905172 0.005940933277489942 3.207038980543524e-32 0.007014961335968424 2.222626247576227e-17 2.035535503564675e-10 1.712465468934379e-05 0.005157169325391084 0.2188675008785516 0.1283816255962974 1.831541922630863e-12 0.4159438594222282 0.01772341271976497 0.3880874550816325 0.02641458339250433 0.006690476169240281 3.582229178455125e-44 0.0167585876165008 1.309258052868258e-24 8.356786889332877e-08 4.307481710134767e-60 9.210794461614309e-09 0.9677524532444397 0.03222611911425885 1.959938751709493e-06 3.70302237330242e-11 8.423669614272336e-06 1.095121724176511e-05 2.999773270895827e-23 5.20624681563262e-11 0.287811340220286 0.2906384527255186 1.645944884544295e-11 1.304714210876837e-21 5.223571475003553e-20 7.64889246514776e-41 0.3128637239893319 0.1086782356730184 8.247323323241613e-06 8.79091537120388e-07 6.265649777721914e-31 0 0.6540106201975234 8.172565104948279e-12 3.781367816216806e-39 0.3326534032658008 0.01325728487185951 1.732397300484094e-19 7.78125651064446e-05 0.9353593646467018 3.759339229189439e-06 0.04930556761049559 0.0004526939286757382 1.32502323405193e-22 0.01472533951919326 4.73508490263444e-16 1.00303030762287e-16 3.991128164885526e-05 0.0001133636740547884 0.3689158805572786 2.455378492092948e-05 1.836042708293435e-07 3.062130581084158e-11 0.000167980590173168 9.128003065006282e-22 0.01106254612149981 3.668018528363791e-09 0.5356185498470576 0.08421030179615933 3.607590157470316e-177 0.01251069782702372 1.692235217683183e-05 0.0002802188405092035 1.815009449019425e-13 0.9871875490927078 5.846490110077084e-15 1.57751456796674e-06 1.705583512369129e-27 3.034372827092721e-06 5.236561788947541e-05 0.2984302380272623 6.288649228054497e-10 0.6947930913594799 1.238025022423097e-06 9.367409131797747e-05 5.534495689944347e-33 1.768755432411494e-05 0.006611704695839118 2.407477362088376e-21 0.002506485089497094 6.822628266637644e-09 0.03904229321631064 0.5561334802532812 0.0001703875289969317 4.140118660780617e-21 1.571422434151453e-43 0.3943131999946218 8.443090861511794e-21 0.007834147094664136 2.05849439531106e-51 7.750332593308539e-13 0.9999013647371203 5.303074722899154e-14 1.120016210278691e-33 6.117755068733303e-05 2.072156212567866e-07 5.875789472355455e-19 3.725049574291841e-05 7.977986274806143e-69 0.0002140618676430169 1.670168984734873e-13 5.467319672845687e-14 1.193472500861405e-22 0.001143283872480358 2.09742072341226e-23 5.492604227932865e-05 0.9962273636919171 1.222170261687414e-09 0.002360363303288146 1.199245501683977e-13 0.001730388028164365 4.698574202020959e-06 7.9112291394923e-81 7.892804010284605e-14 8.603029724861622e-14 0.671921277143943 0.3261319375174758 0.0002116982515649405 4.843649687572295e-10 2.240280069799672e-74 0 1.009077453847917e-194 1.252935936670426e-26 0.2526631203452057 6.621768622906329e-25 0.6250383634011257 2.609802968629308e-21 0.1222985162061416 4.752710321702478e-11 5.005754880719595e-08 0.2888551869107343 0.001638894637303356 0.02724072584108213 0.0005192276647271638 0.4117317498272007 0.2697942432836064 7.18044075703076e-07 5.31113095897726e-06 0.0002138926027625859 0.001206179340627298 6.581058024559655e-32 1.437752143433271e-19 4.255517541060826e-306 5.17233164945722e-11 0.4982988383704431 0.5004664778816944 2.79915314444129e-08 2.847624136717054e-05 1.226132488382828e-10 0.6850740569389142 7.460682090230271e-05 0.008615568082913643 0.004407148359768684 1.430013880801282e-05 7.926262561303703e-25 0.0002811686162232488 0.03428866633611958 4.528508232323971e-05 0.267199199624027 1.01267094463642e-12 1.279627593500152e-08 0.204491910878555 0.05153071792534901 0.6927395546289672 1.121558931374318e-27 0.004886069762410119 1.712563387184293e-46 0.04635173400743006 2.766872299637221e-21 0.001528228021219639 8.982410982354541e-09 0.0008503438586090195 0.4018327875654951 0.0008426607128075976 0.3394632325108422 0.0006059991065235145 0.01123103679523446 2.341081890699749e-20 0.2436457024468576 3.943156837424639e-08 6.981824963340183e-198 2.387969424290045e-05 0.1491912774811746 7.462102392613697e-17 5.79077843269712e-07 1.733624472328619e-06 1.02804481865733e-12 5.763196480920127e-200 0.8507824906896705 2.007762603180359e-12 1.104942841828106e-05 0.8359815829068759 1.525341677597453e-12 0.05734054731327532 4.547337456560047e-43 0.1007947657015357 0.004166570486058252 9.534600162398811e-189 0.001705484160303482 0.1063481312854646 7.222009395864081e-16 0.0008624668231679904 0.001424598852233831 3.630011669242648e-16 2.82137493062356e-15 0.8415797380493569 0.01094203374483952 0.03884289765600497 1.335889283495683e-07 1.007634144041667e-192 1.775319693684403e-10 0.2468926531865768 0.2349185831544235 0.003287067863905642 0.0002082036135170429 0.4166607110492506 0.09798620406037185 9.269244725112598e-07 4.564996995009021e-05 5.147459857233546e-07 0.3297796025645785 2.659660259193935e-05 0 0 0.2045737089112466 0.09525441791570886 0.02625376452198755 0.02152550454238499 0.3225858901955159 0.0007675313307660747 0.9317402112773445 0.03731411242768642 3.397178620929182e-19 0.003402042912934378 2.055320842058145e-14 3.40217324503213e-28 0.005838555498346144 0.02092000669233276 1.753986056921998e-05 1.152324375879708e-34 6.529007074714078e-09 0.005207270909403203 4.96019152562835e-22 4.264018876520082e-13 9.25254107513663e-10 2.413931150914506e-05 2.09185603477598e-10 0.0001752311590548724 0.9945933509561596 0.001495092019408112 0.4369805916110114 3.622257717338714e-20 0.5602337559452795 7.731504297153482e-60 1.139501457433751e-17 6.819903291795674e-07 1.756667775673052e-10 0.001289876781553383 1.476751537089973e-09 2.04757862747951e-13 0.001227559005817354 1.611748324896459e-10 9.427181312852049e-15 1.924425129078407e-27 0.002877864736342543 0.2896157725037926 0.6933483231769474 0.01010144332403113 0.002829037091679968 9.131574529707929e-07 0.8605890492833784 9.022755253634047e-09 0.01488463491228421 0.064751777612692 0.05977360042651894 5.811785168946547e-20 4.928310444315147e-14 2.673742313567497e-15 1.558486610491373e-08 5.301845351033333e-22 0.879692920300805 0.0002557341891889102 0.0004099622280184623 7.812991754327868e-201 0.007634057669113604 5.896734750965942e-06 0.0007609451561938292 6.070166701030326e-30 0.1112404837219291 2.853272557231657e-37 0.0003544426244284879 0.7731926193726906 5.415129909616425e-08 0.2264528316074096 5.224416991901012e-08 2.396787557245866e-15 2.684495266804553e-20 1.385225715569398e-23 1.403514114841838e-24 1.941832519157339e-07 0.0005065940246994732 0.9354208803053716 3.244587355326645e-17 0.0003674752599753744 7.306433129000107e-07 5.183889292576113e-05 7.204000046959456e-06 0.06362223973415863 2.284295625705889e-05 0.313651732365699 5.266062459391617e-12 2.132806334061462e-13 2.545546311355714e-21 0.001048515770756845 9.815323045164959e-16 0.0008357615137637598 0.001618557585009385 0.6828453474438196 8.531547102131141e-08 3.845724108330601e-37 5.292416140378142e-05 5.447082823737691e-07 3.588589733807194e-07 4.958597164705617e-06 4.746076352781694e-07 0.0006538656281919236 0.8961737802948977 0.1031116685778955 1.424565555288837e-06 1.938084337999001e-183 1.625672606825818e-12 0.01688727767984209 0.9633034780280261 4.825369604619854e-12 1.120201751515589e-12 1.210116814994079e-07 0.01980904016835956 6.015986233552667e-23 8.310451933785851e-08 0.08784440879710376 0.01460882698569555 3.312474521327037e-40 0.04283237206243732 0.3623590734196817 0.02005022924363858 0.02765103924941283 0.05244696401439884 4.617205706222471e-07 0.3922066245070608 2.561751993301221e-05 0.3416373834618286 4.343374817469717e-12 9.694665208982627e-10 0.6562713228852627 0.002064805734961992 1.194036548824884e-20 3.006986302418997e-11 8.581584120245086e-07 1.123572205190497e-08 1.230036753288643e-11 0.0006675230537457546 0.007224341805917256 2.793249844488693e-28 2.22623809684504e-140 0.627400136387953 7.508999941173084e-06 0.1307119871695936 0.1084032381869593 0.1255852643835894 2.025747010478376e-17 5.941409254535558e-158 0.02810218188719341 7.435175703822532e-14 2.540036529272058e-18 3.560199889747284e-13 4.988012394930134e-17 0.971897713126606 1.274364338020165e-11 1.049730265147886e-07 9.407470193966418e-12 0.4549063752757785 0.004507546821556838 0.005599572055642748 0.0002732313882413049 0.02463978625124407 9.844490942623954e-34 0.00108017088699992 1.371965103051611e-06 0.5089919453460261 0.004199410802258404 0.0002766420268380768 0.4019539215125131 0.5931782271765186 2.669925096899365e-13 2.712203549495076e-07 4.91105676252309e-05 2.568862728656099e-06 4.241219096441246e-11 0.0003398477884839872 0.04132041472116123 1.282299546351244e-05 0.9527242046698782 6.362087374302914e-27 0.005942470969932871 7.911680776450813e-31 2.425811738941722e-16 8.664232568482639e-08 2.422536938945128e-180 1.23825253134123e-12 2.202251438282045e-07 9.185342062426094e-10 3.531421736832246e-08 1.274957481142359e-22 2.246292385526628e-17 7.884053195355341e-20 0.9999997435421045 1.238661995736268e-21 1.983034131731119e-30 3.419088794648144e-31 0.00153008625009381 1.665306233621058e-09 0.3957092590318327 7.650635749777944e-06 0.4298407466745356 0.09876239530150785 0.000131752591499489 0.0123655222576399 6.396300955763742e-09 0.06165257919553365 0.001996237072186809 0.0004237819381829395 3.35303440564276e-18 2.683502915453594e-05 0.01759890157581776 0.0001568306533347218 8.465432438101168e-06 0.05524362241659523 0.9245453258822899 3.898700952374857e-39 0.03225549008098347 0.002580281297763298 0.0405012804184256 9.525071070449235e-06 0.881878800399828 7.01130909223022e-30 0.04277462268191327 4.894954113846729e-11 1.066314791229904e-12 3.399236220809986e-110 0.0003615883621057943 4.308510680709684e-05 2.143372909850072e-13 0.9995428754685437 2.292644474602254e-24 4.197105628048917e-12 2.509876869789884e-05 2.73522863405707e-05 2.041530966909453e-22 3.093458168187068e-12 0.1324638692055055 0.02816696595717673 1.586483463206143e-07 0.2666082946933325 1.207998011475136e-31 0.06122475331829656 0.01648085075573736 0.07142999562104782 0.4147065502234364 0.008918561577120952 1.476675864809829e-47 0.001366892769152825 7.07119802976171e-07 0.000695497037260059 5.3944265859204e-23 0.006604978177409658 0.01105740427754986 0.0001913686069022617 0.9033647221287636 0.07671842988315876 5.51944316854985e-21 0.0001737014015699624 0.002332249457631414 5.85145143073652e-22 1.143832140420857e-09 0.007725966735778339 4.300188135972703e-24 5.056705632463647e-16 7.223698055724456e-08 0.9897680090242069 0.002961395374515842 0.004910416790890602 6.281796685203592e-08 0.08501489415840952 1.307590457074232e-55 0.9070318131724014 2.838827973890433e-05 5.294958529802761e-05 7.982077874037796e-08 2.838172971972486e-38 1.050526663142697e-22 0.00164166161921289 7.522004201908838e-22 0.05593808271750805 0.8876332545970739 3.260615000833727e-27 0.05478700085532851 2.108766192159777e-10 4.793879929584035e-60 1.520903196480796e-40 0.1439636118404469 0.7913421753910377 3.235307471065024e-42 2.565174760710006e-10 0.04945202867886628 5.216144859240718e-30 0.002131686304799894 3.635673326606155e-05 0.01150981494161318 0.001564325853452549 5.92257068099077e-06 1.317074598905917e-05 0.0005721703720888348 0.0005254796798594987 4.374581312255793e-09 0.998228639438863 5.700017701153155e-22 3.530104912135846e-07 0.0006542597670365631 4.040956706378712e-11 1.306677046542005e-09 0.001735231145744971 2.875449344931192e-06 0.01664779072506491 0.8644998543812293 3.371212204001213e-05 0.001129038903339992 0.115938038785685 1.253157555401024e-05 9.256053198257316e-07 0.7647893892193542 5.606429847680222e-64 0.0003502399532659868 0.0006964690587463463 1.115454523276291e-30 1.159317194243478e-62 0.2341618934849664 2.826512150629115e-19 2.008089149759049e-06 1.945173593978051e-10 0.001592579736228901 1.5246252771479e-08 1.009887835475572e-10 0.901732865338015 0.004045166862645683 2.920830091047804e-297 7.522297357681259e-06 4.158230027372485e-111 0.002013108777048004 0.09060874164146315 3.126243202831608e-132 2.209337212083131e-16 7.683598841516366e-12 0.02608914467331561 0.03666070941101041 1.960547391344118e-08 0.02067596440838802 0.916571546636003 3.610178785286302e-34 2.615258125167534e-06 7.325700805932576e-07 0.3578327693523691 0.06777920194328337 9.80940868196231e-05 0.1869171993412738 2.434596445588765e-05 0.0182632140897053 0.2286069976044375 0.1404774444960926 5.514822517864068e-10 5.337056543822968e-06 0.989428530572552 2.583972981124616e-05 4.739912607569496e-15 1.948028834015143e-06 0.01053831880055632 2.322048920871099e-26 1.568261768485759e-09 1.206976681376582e-317 2.424343616409624e-08 1.443995350942666e-06 4.422636567181647e-66 0.05307573465395293 0.07785249540266787 2.960596483219903e-05 3.905111020609124e-15 0.5375666669958979 4.915680224253125e-07 0.3204945389550362 0.01097902246423548 0.9180952545071088 0.003195013220792545 0.0006487915715833431 4.634417769388504e-16 4.456595163431089e-10 0.07806093616095461 1.761307312947127e-16 5.431189020099093e-163 9.551043786387165e-11 3.99839020623546e-09 0.2892475995603772 0.08609846712969929 0.04244674140552396 1.711788210709275e-06 0.05704431811981834 2.572988114736286e-15 8.326471121612034e-37 3.912224996132763e-05 0.5251220397464067 4.726596557097989e-77 3.273596680583587e-66 1.417081573450345e-06 0.0229095033612028 2.129279418638942e-211 3.528558670820917e-05 4.077614900281383e-15 3.774966302918723e-06 0.0690526242771326 0.9079973945907467 1.363293143987253e-10 0.7818954596196432 0.2181043318227523 1.497883999058426e-07 1.260497160162705e-08 3.658252985071374e-09 1.060705703849386e-31 4.017418187562736e-08 2.331798011825578e-09 2.001482743535374e-16 1.292143654452134e-17 6.801120169690876e-25 1.02525313399003e-49 0.0001624578733661791 0.06985434232637933 2.759764235202315e-15 5.759368692845664e-05 2.863195064560315e-45 5.239850521440223e-06 0.91800980538377 0.01191056087903179 0.05986036187610008 3.165339320014984e-13 2.005686409437385e-08 1.237574596735071e-05 6.4201074481962e-10 8.424084373677044e-06 1.331654775715714e-05 0.9401055004149246 6.548018722744195e-137 6.316858537602789e-10 1.154572828802226e-86 0.08714013694962529 4.858776440134647e-05 9.861619661252078e-08 1.569124091432589e-43 1.598939892131569e-33 5.241588293435033e-06 4.395404873236144e-25 0.1597270233490954 0.7530789117323879 0.1748447969445335 0.1949834729838278 0.5745210766242349 0.04567838071448121 3.519498603734572e-21 1.700408303169171e-05 2.241993812593581e-08 0.00995524622458875 3.055614059938016e-61 5.364086445126666e-12 6.012448937862134e-86 0.6047735323646364 0.2958572123001031 0.03671866582127894 9.81949324815951e-13 1.101900073508925e-12 0.06265051135004493 7.816185280759192e-08 3.156865024136546e-47 6.110942530941353e-45 0.01143377889097355 1.181859651862175e-08 4.237867139322524e-54 0.002389465956923822 0.6223510815395685 0.3401573141168121 0.001713724012009318 2.216644501170616e-05 0 0.02193245722010427 0.6289362926373161 1.133641467248955e-09 4.621473014446323e-64 3.757383766754861e-15 1.74915217696278e-21 2.389559213124809e-07 1.229853010598939e-28 0.0006800796725428738 0.0006007099353886445 0.3697826776651857 3.431885160769813e-84 1.951808615633347e-22 0.782110723378755 9.246786756791787e-08 0.01658777134348517 0.005971061193720053 0.1953268205690555 2.754936227041714e-21 3.286587400573369e-06 2.444597161431854e-07 3.905642554117665e-06 0.01499164965419181 5.92194155589903e-32 0.06669403194263543 0.004267017012582689 0.6930465863682004 0.001906352204433491 4.060080182174675e-07 0.2153624217595815 0.003727629407802407 2.176226019219996e-69 2.220888666949337e-42 2.971449555524331e-49 0.0004797898948897402 6.919254718546154e-10 0.2370816019767564 3.14808084285457e-36 4.098942852776605e-07 0.7620792697355178 0.0003589278066253825 0.9881271045626782 2.67944167859364e-06 1.778952500254172e-16 1.398110941100584e-07 0.0004103266958214776 7.85022449405724e-09 0.01090181221140751 0.0005579294270954129 1.002909768281877e-17 1.109311666155953e-38 2.935133635654079e-19 3.309474599906466e-14 1.33472914975949e-17 0.06990850845345981 0.5248680992677142 0.04441042395730475 8.707746145566156e-50 0.3608014613219168 1.150699957144331e-05 6.400627174076717e-23 0.7602975797958648 2.947596762561973e-12 1.997841286525101e-07 1.489750969050401e-08 0.1018687928604805 0.02892451107080082 1.716442279286243e-07 0.04190176383783546 0.003372241527366174 0.06363472457883863 0.05036328264389915 3.218128835341634e-05 0.3825617169976985 0.5412246398012268 4.621981298536532e-06 0.0003455957858769183 3.448900998273004e-10 8.410366201613212e-116 0.02546795871632689 2.44042975458317e-09 0.06055630724378171 1.140857762515991e-18 1.700925948329417e-187 2.901909594014858e-06 0.0005121417121348935 9.557975346230488e-27 0.9389266434741569 2.161588069960994e-07 1.11539523187231e-54 1.789501525507835e-06 6.083149707010704e-12 0.02265339968324143 1.304186997059875e-12 6.805724756789143e-29 0.0001653242790040085 5.56195060848139e-08 6.403852673522373e-06 0.9769371896887258 0.0002376268694431393 1.880937821400112e-14 0.0001058966806161485 0.001041861057123274 6.072584410933344e-06 8.020318285091486e-14 5.55989592732344e-07 7.359194880957683e-15 3.916388084925083e-08 1.358388629345009e-07 7.81462736894985e-17 0.9988454386854256 8.543312825436212e-32 1.438269563622637e-09 9.936985606754111e-64 2.561291926964409e-05 0.5254739967595384 1.637346322719924e-65 0.1232512520639351 0.3506810766029131 4.08316608345132e-16 0.0005680602160739084 0.1991422851214731 3.679496164735971e-08 3.62891803531623e-07 5.265124083551608e-10 1.544742932157585e-07 0.05212233915844195 0.0001894223112956221 2.080149075713363e-09 0.748542019358538 3.377282531504469e-06 4.075507954878089e-05 7.223283108515793e-16 0.1597582237584591 0.0001152963158471465 2.390651147687891e-06 0.7836191121903427 0.03526243255123821 0.01291242596783251 4.428307293291636e-05 0.008245080412650214 3.627487854501161e-07 0.9013494495036413 0.07783217731135564 9.541387682140077e-13 0.0001647255385047687 0.01184043752015201 0.001337869990968338 2.174535891832131e-11 0.007474969925551756 7.438341315039329e-09 2.680122550563259e-18 0.08418507680352885 8.135735845179409e-05 6.914787167353078e-12 0.002049532089880718 2.929974127391922e-10 4.453450087590677e-05 0.5123149122804954 0.4013245866668547 3.201169451833405e-16 0.4633500333243316 6.061991062445753e-12 0.05362835035309295 0.3521847428187539 0.00560884026698173 5.030102955881535e-13 4.984629519490134e-05 0.12517818693508 2.229502859583757e-31 6.932546714093148e-44 0.6544963432154749 4.280708070626172e-08 7.674858437101297e-08 0.000820656126634733 0.3394089201157499 2.962396536381578e-20 9.650983235902482e-06 0.005263513121076411 3.987975249928792e-10 7.964833655439888e-07 6.024468220035798e-07 0 3.384715462257099e-06 0.0002476616111729643 1.111270920330623e-08 0.9987956811746906 1.236808506814008e-16 1.600043338251629e-18 8.113457231315314e-05 0.0008715243668295256 0.005593532094910608 6.177890002867446e-14 0.0004862115292057988 6.113780513428178e-05 0.5446757070770387 2.110872248459843e-16 0.447753121613183 8.121342491588867e-24 0.001430289880465736 1.098819039401432e-31 0.001321618724528353 1.47347403293427e-05 8.020935121119093e-41 0.6873231651705622 5.184399743723478e-10 5.005164954104101e-20 8.053667301533953e-22 1.555690888730037e-12 0.3113356828233195 4.798021264849799e-06 0.01174736681970406 0.003255679476417936 0.150782980225139 4.426474685069264e-06 4.891534155767402e-76 0.03448755876826108 0.0233185450455358 0.001280593168871479 0.7751228500213857 4.023508649397826e-62 1.8985650445492e-11 0.0459112461879498 6.44978488385656e-06 4.637914223809428e-07 0 1.706033153232491e-55 0.0004074428122580214 0.009837136664586741 0.9361592765096605 0.007677984230253091 0.004494354477407652 1.907373526577608e-44 4.828838111991577e-05 0.03033753740002306 0.01023999022905679 1.4589868914728e-13 4.338880194953332e-10 0.3144899433153843 0.62837989630043 0.0120099894625444 0.8221277831045153 0.0001162134049763489 0.0009624432334376184 2.715942541036856e-20 1.18165077131147e-18 5.284140335920322e-09 0.1767935549729067 9.534063787912082e-143 2.374365094645471e-14 4.923884752104904e-26 0.004101375403081345 0.170740583845514 1.304971707247872e-06 0.2400555461599298 0.5772995259260796 1.660136657773253e-27 6.860577419626637e-09 5.631170264064317e-49 0.0002654091639386285 0.007536247669172003 0.4842484135852834 0.4250412698883332 0.07047015057417966 5.264349305303879e-11 1.673837048348822e-67 0.01982091913780907 0.0004093241635695186 7.52738928350517e-06 2.170605570289191e-37 2.395208898064124e-06 0.001593751231919466 2.010606979629642e-16 1.598181891876056e-61 5.931007765369298e-16 4.4077658346165e-08 0.000483564389566456 0.001594263313377336 2.672710362888778e-30 0.0003420415201977 0.9959863354672799 0.0003039936667056799 0.0001097111414764736 1.089512963251948e-15 0.2204564069026688 3.931539835857019e-06 0.0002129191559323179 0.0002429260024719703 0.0895633245178578 6.061973610895802e-89 0.68910678707305 0.04184783056133661 0.002116515258124427 1.246572635913013e-226 0.0002118636068546143 2.72325806624427e-06 0.004687437164631461 0.389978820629137 0.03120383283574073 2.870981673163936e-33 0.529950976686109 1.737171492158572e-17 0.1155218379079232 9.793308551117314e-14 0 3.106832785940762e-09 7.061925478402796e-08 0.8386169159952052 4.308782836493155e-11 4.278248980587368e-08 0.04586112954510842 5.718800012197052e-05 2.584325950507112e-19 0.998582015564684 6.736865033712049e-34 2.22029325900088e-24 0.001195256998831006 6.741460217551714e-70 0.000165535126051545 6.443740112339023e-19 4.310311450992691e-09 0.2879615404403167 0.0005546843141910563 1.195197977830297e-15 9.93174559674389e-09 0.6861654734992517 0.001422719894648159 4.474376177965869e-11 0.02389544206781334 2.323106131184962e-20 1.298072883011758e-07 1.746559333553844e-16 0.01482938939688458 0.2436875638098318 0.0006526878427998154 0.003103770650104373 2.770272970533119e-06 7.811988951270291e-17 4.121025048233976e-33 4.076041690962649e-10 0.7377238176198044 1.738870500927354e-11 2.879584543697526e-05 5.217204528480545e-83 0.002307536362905905 0.0001138317648727635 0.1085561747664526 1.086878687650738e-11 0.7383639407759985 4.369566668102399e-06 0.1506253508894076 0.00101379597249625 0.01465674649095121 0.0009659407973178116 1.991512306043308e-08 0.1635976832941149 9.878453247074561e-07 1.528048025074647e-06 0.423793005148744 0.3959702922035213 2.84381743034596e-10 2.236813108456743e-06 0.05990350099962645 4.596461835818523e-11 0.0008824317260459034 0.3273935889514212 4.578404971691319e-07 4.057924143347153e-137 0.01960668730085913 1.552751048998026e-05 0.5921955688119871</probabilities>
		</cpt>
		<cpt id="nopt">
			<state id="x_120" />
			<state id="x120_135" />
			<state id="x135_150" />
			<state id="x150_165" />
			<state id="x165_180" />
			<state id="x_180" />
			<parents>exptgens pesticid</parents>
			<probabilities>5.341462606978836e-19 0.01138647890107308 0.01244049719926039 3.222890536295793e-09 2.427368742241243e-83 0.976173020676776 1.127482667604233e-10 1.282647826608033e-15 3.816416668775309e-05 1.884122283497443e-23 4.317923869577251e-05 0.999918656481867 0.9997839443768552 3.490857478954663e-29 0.000215906236304657 8.194799941535671e-15 1.492409214923842e-07 1.459103071071867e-10 0.04421487384225668 0.0009365912162835578 3.461501083986963e-128 2.308387131234396e-19 0.0008186436045322916 0.9540298913369274 5.150236050583478e-19 1.941870157691122e-17 1.554159347497594e-07 0.9999998438083767 7.756885086866524e-10 7.36782600716051e-136 1.423599969324175e-05 0 5.133006032771523e-40 0.006921328332263419 0.9930644228640416 1.280400181507248e-08 0.7385789127865401 1.777317472840623e-17 4.300152786604976e-14 0.2580542205218858 1.047976166199065e-06 0.003365818715364992 0.8848252108314622 6.05398315944362e-79 0.1148682045251864 1.211544091788662e-70 0 0.0003065846433512631 1.354445114785601e-26 0.04878299607605864 8.522276229850827e-13 0.401168645838717 0.549743134293403 0.0003052237909692024 4.422314563092008e-09 5.218448006928846e-09 0.8481829168334412 0.0628299083906463 5.873172434543004e-24 0.08898716513514988 0.007895325270622477 4.281522922702339e-11 0.01465606643568241 1.242699187649875e-22 8.617560653850241e-46 0.9774486082508798 1.612519869156156e-18 0.9999999988829024 8.250273315192904e-24 7.075345728314854e-38 4.678301736403462e-21 1.117097577893239e-09 0.6216225059075503 0.3060955063844574 5.323748953789094e-05 0.06809003179346544 5.260400045974726e-06 0.004133458024943003 1.642232137270668e-09 0.00279269729380973 1.419619506391689e-18 0.9971120037147209 9.529734923731996e-05 0 0.08000593146587744 0.0007632940453419053 0.1452067854590734 6.780576011903937e-70 0.7740202408151666 3.748214540568482e-06 7.60046465798959e-13 7.627989809109838e-10 0.8287913848640754 1.656030266523503e-05 0.0002056793854830446 0.1709863746842173 0.004848199644532471 0.1150151989578385 0.007605347716125974 0.7575869329051241 0.1149404407177907 3.880058588313907e-06 1.035256991206042e-09 1.270500557117153e-11 6.873276604879115e-13 4.728430741258571e-09 0.0002020968535066012 0.9997978973694133 0.000295265246889414 0 0.8575601007280096 2.612084979299957e-23 6.629956345795471e-61 0.1421446340251009 1.298173054491381e-31 1.425876474293002e-16 3.456894980658875e-113 9.310867879317193e-07 1.469897591880396e-10 0.9999990687662221 0.4717855939223745 8.836395908711303e-07 0.5282043331365855 8.868474226634677e-06 3.208272223213096e-07 1.53495807607634e-18 0.3577732509116262 0.6420807316833884 8.060724649573118e-28 0.0001460148026848981 1.77883999283254e-09 8.234606057577257e-10 0.2822831756321257 1.041658578714886e-53 3.868552843831201e-13 0.5177710624653963 2.546817892619973e-06 0.1999432150841985 4.803971605459933e-07 1.075506118577157e-127 3.049242498968417e-07 5.679427513723164e-10 8.454822819870479e-07 0.9999983686283648 0.3639343034126253 1.163057656317247e-07 0.001983321727820395 0.003745130621626462 0.6297792395198296 0.0005578884123325566 0.1048781103897789 0.2013946202738136 0.007193070948734875 3.343664862025924e-20 3.153650622072116e-06 0.6865310447370506 7.853647207982684e-39 1.227963784042381e-05 0.9998677456832451 0.0001199746789145183 0 2.319200241409133e-24 0.0001408990847662511 0.002677785444037969 9.328407516362226e-06 2.213779507128358e-05 0.6084645235806768 0.3886853256879313 1.278936239322447e-11 0.7838967230412773 0.0001472838219827306 0.0006157537332602507 9.484437533477749e-09 0.2153402299062528 0.975222248269412 2.938639100584462e-16 0.02477683573671081 1.315508815919028e-11 9.159807220101774e-07 1.823893182891451e-47 1.25350979979029e-45 0.02702383744264015 4.046275913612086e-07 0.9621065171181282 0.01086924081164017 3.610818961681648e-105 0.9683156011814382 1.031732977686367e-35 4.182944089398062e-06 0.03138361084714363 1.771770961930265e-07 0.0002964278502325573 0.0001882229848049374 1.963830764440888e-23 0.0002273970528872596 0.4450636836796724 0.009679910466796365 0.5448407858158389 0.4639073170548476 0.0130995300506104 0.01125526083830767 0.5115988231042344 0.000139068951999724 4.131306009337711e-34 0.7715700866048988 1.865368925004532e-13 0.001137315504176377 1.324236855533938e-05 0.2260318918016282 0.001247463720554832 0.01748737656078781 1.62033358216946e-93 4.029743017889559e-70 0.1998847052522115 0.7826279181869662 3.444694521040224e-14</probabilities>
		</cpt>
		<cpt id="potnmin">
			<state id="x0_15" />
			<state id="x15_30" />
			<state id="x30_45" />
			<state id="x45_60" />
			<state id="x60_75" />
			<state id="x75_90" />
			<state id="x90_105" />
			<state id="x_105" />
			<parents>jordtype forfrugt</parents>
